{"loss_function": "mean_squared_error", "layers": [{"activation_function": "sigmoid", "weight": [[0.001040386670058303, 0.0037599188809282575, -0.002578542438561363, 0.0009858772919167326, 0.0019050410723986536, -0.00033080566589230656, 0.002653703906333865, 0.00300678836574595, -0.0007173618996412657, 0.00016205624583634937, -0.0009003517406482994, 0.001796874139827819, 0.001346536325366232, 0.003408062523875567, -0.003483304313055182, 0.0038938053568815653, 0.004112850446072832, 0.004003679306316346, 0.0017584228359521694, -0.0019126109939873394, 0.0004314899125580744, -0.0015584792266594726, 0.00360334939440807, 0.004759047343078855, -0.00019311221923824957, -0.0022156263537884803, 0.001140328541179676, 0.001505065334759327, -0.0020801075633014765, -0.0024883772957943616, -0.004581613553802382, 0.004766919842065279, -0.001594464733091546, -0.002935670076532715, -0.0014467479395056495, 0.000724537407891271, -0.00302387753794653, 0.0032156800524931984, -0.0006349340795554137, -0.0015952979855740723, 0.004208695612345533, -0.004824426979354779, -0.00416772400547684, -0.00370883253344342, -0.003307602328727296, -0.001925022261862718, 0.0035954893289055117, 6.763821511546631e-05, 0.0013870976132980073, -0.0007801711105657853, -0.003549007519660411, -0.0026425384587263467, -0.0025744278305901724, -0.000774800122625101, 0.0034016374490181403, 0.0011408878232814137, -0.00247817884715942, -0.003537906430983736, -0.0009255699360360683, 0.004766227856138327, -0.003943493584537277, -0.002290319302873534, 0.003991008053369224, -0.0040944512729406725, -0.0013676760446244061, -0.0006093387084712357, -0.0007936628437643697, 0.0032482319302075775, -0.0026017079966866386, -0.0013915654841115364, 0.0012580980266476216, -0.0029655693770359094, 0.0036718796286931846, -0.0029440412432960375, 0.0016810806883993867, 0.0008043131213710366, 0.0003806774555159785, -0.0037295218429328723, 0.00363888103102624, 0.00409726460078389, -0.002117084956236668, -0.0012558531902757287, -0.0044017815932922005, 0.00046931263327435347, -0.003054136369532846, -0.004094612711724744, -0.00013680269649337783, 3.647696921024648e-05, 0.0016315684321987376, -0.00493176491880627, -0.004994728868893426, -0.0040942503656351045, 0.0019764822240835346, 0.0036151550997321922, 0.001220951023210591, 0.0011896941620288069, -0.004121451105065554, 0.0025225082433796243, 0.001066574458812618, -0.0025357577576382174], [0.0019607011875963833, -0.001324801847489765, 0.0028921615886660914, -0.0027861737732856585, -0.0029672508322322213, -0.003487451692204882, 0.0030409719283202045, -0.0031686329243168186, -0.0036521102801600437, 0.003486757359082867, 0.0021173411861569093, -0.0023517824272893738, -0.0006828011581385641, 0.0001982863704981597, -0.003202104117725363, -4.905621749482468e-05, 0.004844394965460355, 0.0017006777387166098, 0.0020657097766417568, -0.0021457592630256595, 0.004192512241565644, -0.0007909900421064122, 0.004552068780228285, 0.0015447466563911815, -0.004389685497146261, -0.001351897528822964, -0.0020072140086897015, -0.0016735107412993123, -0.003981446085484333, -0.0019229976328111486, -0.004580119552227515, 0.00010819272690672753, 0.0023175996814598773, 0.004675444436694817, 0.0004341348476014414, -6.466631768393093e-05, -0.00043983103102326546, 0.004401690080587952, -0.0034882336798052805, 0.003350896140956101, 0.0032574976860354687, 0.0003306172000432459, 0.00285736187328071, 0.004306637356168245, -0.0006307056214286599, -0.0032090813452877644, 0.004468128371011393, 0.0024246377945998186, 0.004947060434338338, -0.0006913212230330061, -0.0015750236044352341, -0.0008448521192434156, 0.00493424797407891, 0.00039037452659745463, -0.004275577745601847, 0.0027434944403997505, -0.004775529272189057, 0.0005737783116579586, -0.003126247022639922, -0.0015997967895354705, 0.004909569783758681, -0.0015611863425344665, -0.0028998102247494986, 0.0009657777951092225, 0.0005451045953519416, -0.00011804534969768552, 0.0037541234792691355, 0.004485494453053432, -0.0026467300627085522, 0.003652301514634796, -0.0016740365391294722, -0.000997589244559163, -0.0037414835251882894, 0.000986606019738592, 0.003504980460391066, 0.0029070287517851063, -0.004662384402382889, 0.00032507102699486784, 0.00432085805769583, -0.00036801229857765655, 0.00440767786968172, -0.002102485266942417, -0.0014742568919083633, 0.0007762309289438794, -0.004646798857783101, 0.0034300969513545105, 0.0010935213991808933, 0.00389124224534288, 0.001820126686726699, 0.004525164421539488, -0.004162538550037995, 0.0011533913902577794, 0.003256790130397401, 0.0033343680458107787, 0.003517653345120911, -0.00139298851856153, -0.004369529900321123, -0.003527953250792545, -0.0009665306391924136, -0.0028700539944963377], [-0.004446954160011014, 0.003460195748407345, -0.0016880380572982059, -0.004843939063391891, -0.0002519713918215779, -0.00417579693029913, -0.00243232437727569, 0.0010569008909991386, -0.004921217681984243, 0.0008819651769838965, -0.00253693244123682, 0.0007651608235734889, 0.003035166916753664, 0.001174202586725505, -0.0025165446460573104, -0.004396988776159877, 0.0007639030305247093, -0.0014382417911190104, -0.0004602077141976123, -0.002665613118328771, 0.0003100464935473892, -0.0002294002792750929, -0.0006458906307014543, 0.0017778234211462659, 0.003086822962575995, 0.0016597904511677824, -0.004647402898169743, 0.00411304521293761, 0.00040723056862021923, 0.0041339301182204856, -0.004933384076696874, -0.0036325353992474186, -0.0006543813529755367, -0.00012420145814060445, 0.004302469768249685, 0.002968481431242378, 0.004006507831642642, 0.0015947378217002406, -0.002578200106519375, 0.003319410364522455, 0.00024561545217326695, 0.004643390877615761, -0.0032485871107870165, 0.0021767058537941076, -0.0034477737260386696, -0.00429530479234305, -0.003647461166414431, -0.0026894041183244165, -0.0019394930311319135, -0.00140503749489041, 0.00016071358339735282, 0.003724078753046621, -0.0025870778165188826, 0.004975532309104534, 0.003089955726958073, -0.002026331396813742, 0.004842751280627997, 0.0030055566608449243, 0.0036270046623939614, 0.0014812278326667714, -0.004846695546990836, -0.0011406487025943301, 0.0033306018727100742, -0.0037053069936490535, 0.0007421199193727024, -0.0018987824446872839, 0.0006264028022389982, 0.0045806945767786844, 0.003815243891656277, -0.0018305460321822896, 0.004588064339958055, 0.0006004144213301388, -0.0010598493321925199, -0.0006311035936191148, -0.0022691619019586727, -0.0014914877030121308, -0.0008992882846953288, -0.002934840956617878, 6.201890846793852e-06, 0.0027580697121002366, 0.0036967631270279763, -0.001345302276950525, -0.0021494685351557585, 0.0024773401693143297, -0.0007590342551226118, -0.0006732102857761905, -0.0013060940830644163, 0.00041456585163401633, -0.004313593846693387, -0.0012246487585013343, -0.0029286164393250835, -0.0002471883822046019, 0.0019735892370034433, -0.002566192794982505, -0.004042063454635685, 0.0034670592746204173, -0.0036268196954285137, -0.0032438806914247887, 0.0006697069715753678, 0.00481806434638152], [-0.0038540316772558373, -0.0046024561232829745, 0.0014580509902175345, -0.001596436921690334, 0.003995152363635649, 0.0007374219312951567, -0.0032492780058925464, 0.004768657198840345, 0.0029646066145128857, 0.0008444046292998379, 0.0008788305241046249, 0.0047320185982720935, -0.002942361609419517, 0.002725508254567216, -0.004680650375673196, -0.0017040716772450558, -0.0035484512171190773, -0.004394101353517607, 0.0034869090540054918, 0.004299452330703502, 0.004299663965811888, 0.0011623260896644182, 0.0026230298160029317, 0.0002273892653157205, -0.0021367365832333997, -0.0032652599890462784, 0.0027780141834930685, -0.0007124420051384892, -0.0013681872170623445, 0.0038421107438813247, -7.318698607984651e-05, -0.00422533904752366, 0.0043654080330931535, -0.003452053574702001, -0.003174879578269658, 0.002111865037950694, 0.0011039055018942333, 0.004280531775773971, 0.002636983101509881, -0.0013348032916222809, 0.0027647245190755712, 0.004038557412158671, -0.0017363801511509013, -0.004458056180548362, -0.0026691510885917414, -0.00025086152971243603, 0.0022744967606227965, -0.0013550350807182586, -0.0016250264287047777, -0.0004893258136139493, -0.0007741272068253115, 0.0010240420817362941, -0.0014668076285715916, 0.004120402689119714, -0.0007455209784389596, 0.000270418160103425, 0.003330121374081078, -0.0011310107470019447, -0.0012916274940504226, 0.003025581225387811, 0.0027423521178441823, -0.002876830126028791, 0.004104472966433505, -0.002264979517240141, 0.0017010972280104017, -0.0005446643995204899, -0.004489366875227807, 0.004914716215120444, -0.001450964769801574, 0.002902721537773367, 0.0006721498705151855, -0.004446891835690685, -0.004333108834578414, 0.0006827548411153473, 0.003810412810381132, -0.0046463790290562435, -0.0027887565769263703, 0.0012220772065087279, -0.0033135415745186884, -0.0015347912992219382, 0.001029855680560984, 0.0004219997684196267, 0.0037282600815156603, -0.003557912158589198, -0.0009716937804607325, -0.0008266829495030461, -0.0036667994715905428, 0.0022380743960793755, -0.004782309071548875, -0.002583115130367244, 0.004371496912453368, -0.004987732077579672, 0.00343000160982273, -0.00025723448668499814, -0.0017927795847624871, 0.0011611062849485087, -0.00330517481719949, 0.002770400170043026, -0.0004297776680388509, 0.0006961758143628812], [-0.004329062467267898, 0.0038442218674575616, 0.004807689766639493, -0.0013064868309101462, -0.003705112829019503, -0.0025584884817250854, -0.0028222855752831023, -0.0014145737468849087, 0.0004843657007725854, 0.001832878341455171, -0.0042294222513093935, 0.0017384185302297414, 0.0038370929942306035, 0.0020078092357625624, -0.0040962376697032685, -0.0017186660264321809, -0.0014268506967224925, 0.004532521931437906, -0.0028623601701434766, 0.004024291289651067, -0.004342658103243431, -0.0026244147508189607, 0.0019669219542652805, -0.0037464461908131674, 0.002075217669670907, 6.23347994734777e-05, -0.0029581881230816023, -0.0023195301313097285, -0.0041938023141839245, 0.002352697464682459, -0.0017020954726542302, 0.0004559388109519266, 0.0020117949149072974, 0.00021786021785241173, -0.0027027192025072455, 0.0035133408332677545, -0.0006431442927719924, -0.002372386715286833, 0.0036902063591213374, -0.001201523286404048, -0.0027677414291094496, 0.0014491693158750181, 0.0042796197923865775, -0.0018252055335785467, 0.0015817176179016125, -0.0009480664762984694, 0.0012246660667156774, 0.003510188773274285, -0.002059659899142415, 0.002999434571989176, 0.000741922878520835, 0.0010181457193724815, 0.0031126702951996257, 0.0037698310860941183, 0.000196735924337982, -0.00025562152234225206, -4.194767223983636e-05, -0.0024300262179518563, -0.000958212800546903, 0.003167826720313102, 0.0013711703986382063, 0.0003187333608576804, 0.003370642822610361, -0.00189851908467352, -0.0028540112748390222, -0.002624688196342543, 0.003230704488842661, 0.004187656150822565, 0.004272044908366845, -0.0004654059749699688, 0.0042229251210079794, -0.004987713099142594, -0.0036279827993979273, 0.003965026534594557, 0.004392389325899008, -0.004456342776320465, -0.004081435423928149, -0.0011018134405926618, -0.0008269358003879538, -0.0035261723160790225, 0.003174954742224863, -0.0001187533116318619, -0.0022560867269361086, -0.0019422572551251638, -0.00426849760059086, -0.0018401681913044156, 0.0013639628240187931, -0.0012649798200342166, -0.004626005450178661, 0.0003079524926912899, -0.004257437057509609, -0.0011381770450322416, -0.0028216902914521523, -0.0006474052518590677, -0.0019511689748440762, -0.0025386255432218543, 0.004597217849032556, -0.00018544950559060396, -0.0024871296894582594, -0.001958598508020292], [-0.003422374222184, -0.004719717275170723, 0.0020826750659999243, 0.004804062949140831, 0.003061190523655306, 0.0028351522739856845, -0.004096878665155517, -0.0027515305312684345, 0.004329422188703369, 0.0017618941645919251, 0.004401128474315977, -0.0026717875333325293, -0.0017490352978594228, 0.004088312081441941, -0.0005328373697577535, -0.0004348802775405126, -0.004890196400660274, 0.0044720776507086975, -0.00042909678500074964, 0.0030306473439727496, -0.0033184513324703516, 0.0049177730246541445, -0.0008278715110298625, -0.0004903244706050648, 0.003609262326561142, 0.0011828303587405322, 0.004886201798503004, -0.001739587619378832, 0.0005984960787551721, 0.002928572477538894, -0.0014592007541302087, 0.0029196742531904284, -0.003570158353582885, -0.003278168133395506, 0.0026699534144828127, -0.004606575256918112, 0.0011518894552130952, 0.0022423366876899485, -0.0009113916624402555, -0.003997273472243712, -0.0012637674900064276, -0.001281588860160966, 0.0021518583980236986, -0.0007219291331169754, -9.792150340502421e-05, -0.002261631170016868, 0.0030189290650180648, -0.0017807045124113197, -0.0014805757439822508, -0.004973842629631038, 0.002176290199532807, 0.0005006628082249061, 0.002863277778051075, 0.0028635696690962565, 0.002189850577030311, -0.0028469898909687574, 0.003585332600829892, -0.0009562865475793514, 0.004069982116346235, -0.0002665354593213874, 0.001400406718653234, 0.0008221673686717593, -0.0027827370667183994, -0.00041327484515811183, -0.0016515606857230004, 0.004568359394709187, -0.0013058208367060045, 0.000522860898217751, -0.003366776015284967, 0.0007386999248948671, 0.0017800599932822478, -0.0032755385800246895, 0.004762277507614193, 0.004285796764968237, -0.002523288128558482, 0.002510477640567007, 0.00202695889392518, 0.00427482514134116, 0.004338532869143861, -0.0010146096890478141, 0.0022384258964964097, -0.0008723411785954791, 0.004596584976157023, 0.0049397906186008705, 0.0002931039429922063, -0.002804238856824988, -0.0005102190694598009, 0.0031047284522015594, -0.0018142407887423617, 0.00325336081463297, -0.002233415093173079, 0.0021993652598747415, 0.0019201225280248892, -0.00160618459261611, 0.003921622054949925, 0.000934334905435521, -0.00047995003181021227, 0.0022618111118640812, -0.0033522275972847513, -0.0005374122999206596], [0.0012435738123405538, 0.002784415308532009, -0.003151112356788329, -0.0005265006029698252, 0.0025482374386038564, 0.004617382774382368, -0.0022209090239935316, 0.0004046452867490398, 0.003958493886025761, 0.004309512964576546, -0.0037064217696499034, -0.0028971526039075256, 0.002676915754291481, -0.004164872997677649, -0.002433055229413641, -0.0037702973146253004, -0.004248010887197949, 0.0042138546386645695, 0.00026317800287065617, 6.793978139425522e-05, -0.0042351886770214476, 0.004804294860253833, -0.003759183158616515, 0.003726885794624101, -0.0021988367074353343, 0.0017866598955876486, -0.003372453728716718, 0.004016432673047237, -0.0021174453571356244, 0.0010723805999290651, 0.0024676042330919537, 0.0029451744779885507, -0.003759734637632275, 0.002977207131139365, -0.0034702525642354965, -0.0036128811369669934, -0.0024522780519959887, -0.002239231475646363, 0.0015578034074793965, 0.00022578184332937897, -0.0013656716528789724, -0.0025025437790898754, -0.003907015887066816, 0.002234038791759302, -0.0014999057362265833, 0.00461886884768536, -0.0037061196804063046, 0.0005059216756821737, 0.0020477557678038614, -0.002446897211035841, 0.0015303913369762914, 0.001432507558274938, 0.0022971415206008653, -0.00023100640617529106, -0.003277565981880455, 0.00034564913164277823, -0.0027873010201689796, -0.0015495120920692518, -0.0034120654070277255, -0.002693686916505539, -0.0020485380400724717, 0.0016791803967895124, -0.003190545259731632, 0.0003562088542795501, -0.0012103413339272528, 0.0033998690980492413, 0.0024602330381574633, 0.0031228196360735235, 0.001826801232356368, 0.004307746399324497, -0.0011177673402203146, -0.002276937685130882, -0.0020076649938370584, 0.0009128078675429245, -0.002610811877058743, -0.0017470541525501215, -0.001731461536406377, 0.0047678727366892775, 0.004803150169737557, 0.004097967263794547, -0.004699607704959403, 0.0026553022059191116, -0.0019377136799929584, 0.0015172329802769528, -0.00032523344488273685, 0.0024115664077493486, 0.003063563242929667, -0.004361827094126525, 0.004892073031751465, 0.00090151413173038, 0.0006932530051133269, -0.0013121595685288245, 0.0035912543291934844, 0.0024016101643566327, 0.001059818238597434, 0.0026857877575734677, 0.0016042686145104727, -0.002456759028730118, -0.004681734808503093, 0.00043628202318915076], [-0.0006542851766544299, 0.004641308944743699, -0.002923765156186826, 0.0029586074803266875, -0.001252308369882057, 0.0027786227312983124, -0.00016974452920995222, -0.00407317031667047, -0.0021193246819337574, -0.0042900327994206304, -0.003264174693242985, -0.00195955828562173, 0.0015664520924913326, -0.0027790749918645166, 0.002096025036419611, 0.0040984319347640305, 0.0044681926994932395, -0.004483509388424487, 0.0036935448135039023, 0.003307198550384677, 0.0033091231168088766, -0.002813234186522473, 0.002498101723965379, -0.000650696949838301, 0.0030388578145915295, 0.0023842059721687894, -0.0035012809363410167, -0.003184112665781668, 0.0002915202360078096, -0.0033973116719173014, 0.004336491310272926, -0.0007273786826088799, -9.422863263539808e-05, 0.0033076269766387023, 0.004829391690700597, 0.0037627065828983322, -0.0031306727723757156, 0.002324219596836448, 0.0032950577773724803, 0.004004438405155331, 0.0007530765577215002, 0.004950442829154466, 0.000189540405576674, -0.0026852261515203646, -0.0019310366659349922, -0.0017679923723344392, -0.0004515200256814634, 0.0006812870733089492, 0.0017926105246190219, 0.002866969047920934, -0.0010552128944130356, 0.0032311937093565087, 0.00343857176919721, -0.0019192297015797354, -0.00465790054214598, 0.004879977129486014, 0.00422436365345543, 0.0035949078780724017, -2.8095697150181884e-05, -0.0003642718387815193, 0.002615381416497471, 0.004013771127486131, -0.0013196556430571595, 0.0007721062736099297, -0.0011449441213167953, 0.0024045117911208683, 0.004823060834347346, 0.004149332930179013, 0.0038405916009291536, -0.004779734370589613, -0.0046634538893195136, 0.004402980996906559, -0.002206124484698322, -0.004681155259463754, -0.0023255320247786426, 0.0016120182354249345, -0.0023239551065739063, 0.0003383183638430024, -0.002085426440332916, 0.0022762106041050714, -0.003915091438386934, -0.0038582038844581137, 0.0018026976845350083, -0.004449741373659183, -0.0011115559533776509, 0.0012172229942602796, 0.0032461176546606007, -0.004101862636138048, -0.0020009139996096125, -0.0025789515397938866, 0.004259487989203927, -0.0020915046812668417, -0.003861969705645044, -0.004236645640618688, -0.002908221663171019, 0.003242330243439984, 0.0009291547210675197, 0.0034813044983282087, 0.0036541609282416355, -0.001986231324619794], [0.002121036990348494, -0.003873181048357769, -0.0016575948311810629, 0.0033238966439338826, 0.0021892410101665384, -0.004611407709942482, 0.0011957711603197765, -2.222000450761378e-05, 0.004971618601751608, -0.0031746697100444444, 0.004843759297732754, -0.0014822585591973227, 0.0017189568586605305, -0.0027376264039000666, 0.0014423522246005812, -0.0015002014097260517, 0.000732454415018219, -0.0031064857271301638, 0.004199369332272455, 0.004562232352301423, -0.004657328252224884, -0.003197716346072146, -0.002649683928455181, 0.0022874657490611506, -0.003437871646733386, -0.001582600388004075, 0.0009576092984673748, 0.0014092412990897992, -0.004794881177450514, -0.003050629614484012, 0.0011472793723752298, 0.00379289842874849, -0.00023703380596790113, 0.004879039173430621, -0.004085545204398606, 0.003982795379248105, -0.004925279291232051, -0.00012780651935610614, 0.002537107657217044, 0.004541687736460764, -0.00025584646410541437, 0.0013788178965279674, 0.003983983537554566, -0.0012006728987337214, 0.0019897957125370415, -0.00019536632086217254, -0.0015592760819577956, -0.0020749325878041416, -0.004008070164974252, -0.003304791415897922, 0.00130081525906564, 0.004460474630603037, -0.0019409639194206373, 0.0009934316055163032, 0.003759945534909063, -0.004066105284703423, -0.0028073421271714526, 0.0021743923529402923, -0.002285721438973872, 0.001233987926726382, 0.001405865556674009, -0.002906730222396682, -0.0047341092211036955, -0.0035662868361761883, 0.0023643024625933182, -0.0007795149737114919, -0.002399007083153931, 0.00035552752896274645, 0.0004755385199391414, -0.003938629940070925, 0.004056337332796635, 0.0018405993051513105, 0.003551653133548288, 0.0026882782985629015, 0.004691404893724574, -0.0018618693438291157, 0.0011129059665748496, 0.0026675601901807377, 0.002191247499816474, 0.00087960450337467, -0.0015910947528564958, 0.0039072400074386246, -0.0008389971337163446, 0.004885060238405274, -0.003086632117106242, 0.0015889006455241618, -0.00026030055486082546, 0.0049714473327010554, 0.003132284713708063, 0.001596336919165795, 0.0032506170734901496, 0.001992054554665881, 0.0044873250317503085, 0.00418075137275874, 0.004428828471772732, -0.004836581379182649, 0.0026717007823691434, -0.0029035690157531912, -0.0025522555161179208, -0.0010401749510250777], [0.001609753295446258, 0.0026197827306415223, 0.002366240192506596, 0.004018632591812972, -0.0038572904726404903, 0.0046215797492561725, 0.0026479624272794065, -0.0008753480933621762, -0.0018899716837175772, -0.0031786909089490754, -0.0046022721340405635, -0.0024799575275987816, 0.004191169023807639, -0.001076755191013798, -0.002119815692234084, 0.0036341357306448373, -0.0022752704598394302, -0.002567974030307236, -0.0024856780185410123, -0.004803912218178459, 0.002261706503471227, 0.004118228268023484, -0.00016856575653683217, 0.0017861055043667095, -0.002121777105195476, 0.0026174057006662487, -0.0015274535758698095, 0.0027837161614768366, -0.0012576288232654508, 0.0014339520349456033, -0.004834693510492832, 0.0037102958263008157, -0.002135513683221928, 0.0016750381054983785, 0.0010820546767816982, 0.0008445123524697274, 0.0014719792111262502, -0.0049089310415447, 0.003956441678265859, 0.004626971788570179, 0.0016239270980221822, -0.0007731982691198073, 0.004846617585653571, -0.0024172457332677986, 0.002559653399991651, 0.00017435041802027484, -0.0003031263211862754, -0.0034350633668399255, -0.003829449976972772, -0.00482318230252829, 0.003963635105520139, 0.0038306304606134265, -0.003017312413716454, -0.0028507844359879197, 0.0015009470661971336, 0.003020066935441829, -0.004614358761900893, 0.0028702748602238573, 0.004734974146792204, 0.0016240920465444278, 0.00042178321789718143, 2.3773697840951194e-05, 0.0012679475692973056, 0.0030703914563118334, 0.004904798256005404, 0.003949038093476493, -0.004257362975908507, 0.003884779786214462, 0.00029736039651874664, -0.0010825976281075714, 0.0010567526089913784, 0.0006191070479618418, 0.0005840525279869994, 0.0005796408386712837, 0.0037676612829179697, 0.004259763630897467, -0.001828789347957317, 0.004890238890440503, -0.002828393514861811, -0.00012940209340426938, 0.0027635886501358228, 0.0028516863079672576, -0.0023510355084369826, 0.002132546212655899, -0.002706156716418834, -0.004194168621277532, -0.003213287653329562, -0.002023151463395676, 0.0027147638698319923, 0.0007962249661530594, -0.0012359330396715796, -0.002650982410287602, 0.001521137796450839, -0.001520227924041898, 0.0034797977581052667, -0.0007371605792302217, 0.002846277654262379, -0.0017306691713152656, 0.001841532799169249, 0.0015084731591397896], [0.00169108675643421, 0.0023076326960580432, -0.004686380580354013, 0.0005855734039345297, 0.0031217252051300463, -0.0010340106546921348, 0.0020227719495842823, 0.0021350986256641726, 0.0018882934927322579, 0.004832332886317862, -0.000582633702148473, 0.0049022445149724024, -0.0027952778583643155, -0.0024596860401553847, 0.0001539056559493046, 0.004323584441573572, 0.0019312529253394436, 0.0016766748962237068, -0.0049783969496043304, -0.00253651377731963, -0.0039865122594772385, -0.0032843844029535, -0.0036175474384666497, -0.0028153012393344833, -0.00020782658455976814, -0.0033369449067230696, -0.004361192782174322, 0.0012270671386325665, 0.002634540625582539, -0.0019258914260568759, -0.003904671299517475, -0.004215001416453594, 0.0006064039302419869, 0.0017477918491981739, 0.002488473130773731, -0.0035391670196090906, -0.001897245970891629, 0.003207003628235416, 0.00239850354356126, 0.004297712946182715, 0.00038480577106969095, 0.00185097580480579, -0.0007061050994296037, -0.0019206369561084835, 0.004497429183256271, -0.004419310961259826, 0.002543807427681498, 0.0030026691858558623, 0.0034115142414966855, -0.0018348516257562322, -0.0011041715713416122, -0.0017776759057627056, -0.003144954414271233, -0.00406330914070711, -0.003693176097386631, 0.004471647647666333, -0.00039352234812621654, -3.704910804062239e-05, 0.002089459282546894, 0.0002595085864057203, -0.002098972555921831, -0.002658588238969444, 0.0029383635886263025, -0.0005776651950913396, 0.00444669548062641, 8.84714017536873e-05, 0.0015098512879027958, -0.0005920179798663983, -5.80324142857528e-05, -0.0015681105979464503, -0.0029079751011161425, -0.002949545428487711, -0.0011858842205895348, -0.0018695547217462338, 0.0015223239996013764, 0.0015172348706247694, -0.0021955002402521905, 0.0019092966587053832, -0.0016089747362325714, 0.0012437539220039717, 0.0017291472870020076, 0.0033960996126879287, 0.00017189419125961374, -0.00018180139010652054, 0.004872006727691099, 0.0017969172202521588, 0.0006036292174286598, -0.00474476513276816, -0.0039565955721440295, 0.0005893742761533902, -0.0012352063365407028, 0.003854783800338887, 0.004615801850233155, -0.002804553452112014, -0.0020957241712818674, 0.004238206172378806, -0.0018551932953726601, -0.002463604446803037, -0.003681212183594952, -0.0014779236167943998], [-0.004556452503338043, -0.002635876411214795, 0.001535574337243508, 0.004945536997564296, -0.002069244094834838, 0.000418647067486122, 0.00020695021896152167, 0.0017615132415496025, -0.002177885006592689, -7.41647224364924e-05, 0.0006880254504551949, -0.001764960472135809, -0.003973138788333012, 0.00427245718132552, -0.002778529677064836, -0.0011433855931102556, -0.0022478980059457043, -0.002103005711268009, -0.0012569596572533214, -0.003142760622561854, 0.004344294066770554, 0.001348777456208883, 0.0018647061130024614, 0.0008393212199054867, 0.0022308336332021363, 0.0011846001435918694, -0.00024117551883641366, -0.004528543269984055, -0.0009575304343516023, -0.0021751432565189277, 0.0008097267576453356, 0.0016937608183481886, -0.0002425101193699918, 0.004200652735936602, -0.002218433082898822, 0.0011517194166181296, 0.0004432841570681644, 0.0006322979135093623, -0.0035856696570098134, -0.0016322778022740746, -0.0020798627213296683, 0.00123590109686025, 0.004383088367410908, -0.001642523265731366, 0.003414288112688661, 0.002912786148458582, 0.0032947680992305743, -0.0003230487752255342, -0.004607409041007116, 0.0033756210504422646, 0.001437020244566714, -0.004815301031786328, -0.00027054474573301544, 0.0008767169126615579, -0.0036610151981999826, -0.0023267772767916286, 0.001853759458833159, -0.000755056809501946, -0.0025946128167416826, -0.0033992938622119905, -0.002293064007974808, 0.003652812752141657, -0.0038132254899928865, 0.0046793708250731396, -0.004460810814624787, -0.0040516923399468805, -0.0049934369854628315, -0.0013075693862289175, 0.0031245772927053833, -0.0020384953161087637, -0.004836015197380638, 0.004065059248569434, -0.004845817717276009, 0.0039728435880667734, 0.0004990040964088392, 0.002440724272254631, 0.0013493370383456183, 0.0007099685135455195, -0.003892335564178421, -0.004035249070305871, 0.00025811360066054206, -0.004264872126486887, 0.004356698685763451, 0.002084051850787366, -0.003725150908904227, 0.0034068601018435755, -0.002462162533083476, 0.0007029328030864548, 0.0023527619481880976, -0.004907345790449352, -0.0020909317443423827, -5.128243311336867e-05, 0.0048747151327308185, 0.004941588565348084, -0.0015199810550744642, -0.000950165986532624, -7.605435545416164e-05, 0.003351380389078509, -0.0018193453718929786, -0.004140678017728799], [0.0042543279171417875, -0.004794110460983974, -0.004483716427732789, -0.004131556013020189, 0.000739853794095505, 0.0020040374313657046, 0.0037096410530454557, 0.0032110236566728232, 0.0014914377706850748, -0.0009182729212626143, 0.0016410848712456062, 0.003312845958385469, -0.0011703420738785586, 0.0033112088268897584, 0.0032807666852936327, 0.0017283674000209796, 0.0035350889933616356, -0.0006562387643322502, 0.0002335660279875638, 0.00018556399036654975, -0.0035742890791554717, -0.0038081082371882336, -0.0036216516811076824, -0.00454657512028276, 0.0010547083134154712, -0.004330292221944801, -0.0035433971384442953, 0.0032910089738823227, -0.004170348405605959, 0.0009076656352919547, -0.0023182946301648845, -0.004993903525793151, 0.004200643680016048, 0.0017538177912322138, -0.0005481431111002818, -0.00045418114430849626, -0.0042180831171288805, 0.0016515931324275045, 0.004345653552640503, 0.002628271404428474, -0.0018612665129522578, 0.00449101126720882, -0.0023833201236382485, 0.004311860590253114, -0.004231432751257366, 0.004871001122692385, -0.0037098278537819507, 0.00339071622359395, 0.0027264456991080233, -0.0014297389538174654, 0.0019521836021172056, 0.0029593065579397075, -0.0012647936871766565, 0.0027115455780417144, 0.00019788831996085405, 0.0024093538494789346, 0.004852270072633701, 0.0045265163131075785, -0.0012614573933779063, -0.0020100556446652463, -0.0015956848974748006, 0.0032544185256025, 0.00406734352606451, 0.0007267245134758267, -0.003656488138122772, -0.0015686242159454909, -0.0014867096309474515, -0.0005542881795400807, -0.0007437667445191875, 0.0012298172404523458, -0.0028990093611870682, 0.0013507551065058063, 0.0033743268817452267, -0.0021834057073935186, 0.0034062289798597383, -0.0037381145351930768, -0.0022221615044691555, -0.0032054684300035566, -0.002508918316890053, 0.0047628808321628765, 0.003186772890115582, 0.00045715000626587836, 0.0005556644055786245, -0.0012757919797950733, -0.00023618928793629236, 0.0015494481072886417, -0.0033713488863510686, 0.0023820832693515585, 0.001654069683878566, -0.0038751322746918104, 0.0033880868930599344, 0.0035039982133389597, 0.0013859666984983665, -0.004661568767049519, 0.0004745087781042375, 0.0006911294882609408, 0.0018177151278202276, -0.00411671502679917, -0.004457982038095758, 0.004783006661667074], [-0.002585942863751973, 0.000529901526044655, 0.0014174385884309203, -0.0018764182854277647, -0.002289461752484958, -0.0002416434213441945, 0.0009477371921301422, 0.0011856248028341088, -0.0020418521262629795, -0.0011304493053283181, 0.0004485215729359395, -0.001965946828887625, 0.003246660188818094, -0.001436565404300825, -0.0009137343280651898, 0.0014232284609694721, 0.0006425582959305063, 0.0022001500933043214, -0.0031252348468674565, -0.0005816576266273145, -0.004207368038827093, -0.0027658687884164457, -0.001195877009395818, -0.0013670569069710835, 0.0010174824310233603, -0.00033420845428105625, 3.686064803215799e-05, -0.001244482582744998, 0.004535845791065782, 0.004636905353168201, -0.004600311946375589, -0.00043972523949978304, -0.003656862931370456, 7.807356759441646e-05, 0.004614746055658851, 0.0036484998050311463, 0.0033911170062657604, -0.0008951390379322629, -0.0032099224126263116, -0.0013576475540693156, 0.0023608798278454968, -0.002460061143191732, -0.004632461026161295, -0.0005725058436966413, 0.003971557928010304, -0.0030195569416688094, -0.004380047707528615, -0.004779140958136901, 0.001279082442698063, 3.707974909952002e-05, -0.0007539310309633718, 0.0015583476640353422, 0.004903639383388275, 0.0011789237349574466, -3.2441416001626616e-05, -0.0016186974574196634, -0.002348466710340764, -0.004198497150541388, 0.0038669787218304956, 0.0007573967605904799, -0.003369518253387482, -0.0018991084459715323, -0.0014336973402552843, 0.0023826782793846682, -0.0016064894320506552, -0.0030925008923601274, 0.0022095221708975108, -0.001381822740910772, -0.0023164924816289714, 0.0008595644814838781, 0.0016564955653865154, -0.002267900016748914, 0.002254764794465818, -0.004946091941753847, 0.0034820351919020347, 0.004883351534190074, -0.004143705050117376, 0.0029872267458938796, 0.001000298606701303, -0.002601348080034328, -0.0015723159618417702, -0.004096740309491388, 0.0005878008814153325, 0.000583813316337581, 0.004469451217692137, -0.002958061612094275, -0.0016191496078131196, 0.000852172886843694, -0.0015240660719388157, -0.0029864539286712302, -0.0016167687354683201, -0.00215404177943045, 0.00407852668510864, 0.003400705849553802, -0.0005844633101014353, -0.004101534408036512, -0.004168711545463098, -0.002644054796202032, -0.002248455340043246, -0.002753104656122293], [0.00301295723375498, -0.0010743532963635649, -0.004500323067907851, 0.0039854606155308855, -0.001954749132056851, 0.0013326293664427035, -0.004242427388167565, 0.004449513016954352, -0.0009831345590334203, -0.0026100353394192034, -0.0030150745023071724, 0.0023125939845508392, -0.0042703640719933865, -0.0029435324824017505, -0.0006293746491678655, -0.004377408647010108, 0.004215488880037268, 0.0018419779452603568, -0.00475242458496058, -0.004185435281290434, -0.004485581575842877, 0.0021105117272671604, 0.0033948140927469875, 0.0010934647788385463, 0.0017284310882858204, -0.0011419259378635071, -0.00011045360189842687, -0.0017171840559118468, 0.0006200107258362139, -2.060344250270213e-05, 0.004120224954600247, -0.0033417288969884665, -0.0008828656535674485, -0.0020155839437994015, -0.000610909449766407, -0.0032119806367860815, 0.0035551985901140686, 0.003296836852693475, 0.0034349502428125253, -0.0036849153968903127, 0.00306667704803413, -0.004261802200884594, -3.903344439965678e-06, -0.002890349490027747, 0.004062259248810014, -0.0012695653958807885, 0.002276315798468602, -4.5589812746049674e-05, 0.0032111013645469673, -0.0001243481273547455, 0.004230349376378583, 0.0011580118162971146, 0.00451931527679491, -0.004759673273662133, 0.0007133068920865274, 0.004271223936364243, -0.004410011023890718, 0.0007151887930600077, -0.0035459052113685444, -0.0016464606813534045, 0.0006039533519364782, 0.0023262185416630292, -0.0019694688492891623, 0.0008679579100440201, 0.0005607875183744962, 0.00032938043252064494, -0.0009399384106751089, -0.0014321333224931632, 0.003419789125283553, 0.0035276072783092553, 0.0016409699335565619, 0.00047792972420978696, -0.0013845025540612588, -0.0010068794017292718, 0.002001566128958147, 0.002701634800851163, -0.003600281658960227, 0.0013824844945862199, 0.002518823590788575, -0.001903964343240738, -0.0006577232471834072, -0.003250841985238094, 0.0016616330821271298, 0.0004935569049315447, -0.0026643742256167325, 0.00024450590179164386, -0.0033415068086563495, -0.0013512837836015057, -0.00456663530756911, -0.0006708591958285992, -0.00012464000559225374, 0.0025012410968952604, -0.0039060981008782617, 4.68658859077431e-05, -0.00017851943986469266, 0.0012390252359195664, 0.001132635621300132, 0.004525834827670682, -0.0010803794067782311, 0.002705554427294656], [-0.004565566769849766, 0.0037793332695417953, 0.003227941965533855, 0.00334939931096129, -0.00299946069651115, 0.0017956282644209657, 0.00407626025393456, 0.0029531173209290775, -0.0015184376121748187, 0.00493268863929612, -0.0028877107882633534, -0.00023049339819737787, -0.0008084249677130775, -0.0021299265433289993, 0.0016954401022023268, -0.0036087213340155943, -0.0007292435640202733, 0.0026046038292393357, 0.004576818034169997, 0.0017009868113459859, 0.0002983948477719104, -0.004000975609003571, -0.004113996982605839, 0.0031739012088155783, 0.003018314776182563, 0.0012185787445409147, 0.004785173337707027, -0.0007354030523626454, 0.00457942410634717, 0.0005116487133756745, -0.0025048233773370377, 0.001659218435838621, 0.00491252462998283, -0.003087528213353674, -9.000687126951151e-05, -0.00024268614895544237, -0.0019138458080088638, 0.002065438896169035, 0.003546559652331578, 0.003615602564382327, -0.004708647135426849, 0.001529314441205811, -0.002735611173818657, 0.0025741655236797157, -0.0027490134408807276, 0.00045148634838965227, -0.0035230574825814796, -0.0016741207936910164, -0.003964989299144389, -0.0035772548592048013, 0.004392502200711309, -7.81202539765248e-05, -0.0032101775765871164, -0.0028628298013933916, -0.00041922912399181, 0.0033042904148290987, -0.002454003589221817, -0.004964496724608968, 0.0019480734134680478, 0.003117009862480002, 0.0015728911465955646, -0.00021255523866742752, -0.0022693793261088537, 0.0011163223128650953, 0.00223774302772369, -0.0037964115869811555, 0.0018493941803096412, 0.0018057081193445582, -0.002559037286503945, -0.003110085963443211, 0.001635414674076312, -0.0040550736962739675, 0.004413011220784575, -0.0040840236088592755, -0.0009976601183380495, 0.004340544888355704, -5.9783296300128415e-05, -0.0033056064758956107, 0.0003752628263192356, -0.0007496173581175488, -0.0019860128025074543, 0.0048860306922725695, -0.004835844476113194, 0.002754385811606041, 0.004555881982978347, 0.003940666800932863, -0.004546454896178179, 0.0030424011469743955, 0.0017313651432694045, 0.002582859851472906, -0.0008290535548254527, -0.0031821650427701887, 0.00013311372826029216, 0.0017168422924133519, -0.0005240991119527909, -0.004481157899954835, -0.0014603882575531736, 0.0038088525819724934, 0.004369637370054534, -0.002052415983816832], [-0.0008779625312779864, -0.0037002399014140234, -0.0038695099757216113, -0.0006560869967225927, 0.002009075716467205, -0.000727666575689654, 0.0038833419826035066, -0.002860979524599857, 0.002679351185866992, 0.0014659407211841937, 0.003587532893740422, 0.0027066237351904034, 0.0006409450563541067, 0.0038181696719772245, 0.003834292456312084, -0.0025075098471233482, 0.0007965092233493572, 6.122285544999263e-05, 0.0021038938698582, -0.00010079560863033958, -0.0012233983832882012, 0.004887984304922695, -0.002431787678843267, 0.002346069839068302, -0.0007277848015692975, 0.0014334396058722255, 0.004711918707058557, 0.0003770109091223821, -0.003099642818265459, 0.004360055628633304, -0.0034967419518403507, -0.0034493131716260275, -0.002816367967759993, -0.00046434009136472366, 0.0030237724329295968, 0.0007976442201076527, -0.003181531289844225, -0.003837035993019069, 0.00262650825367908, -0.0030394734917200063, -0.0021381701326004354, -0.003279500075856947, -0.004357136223379779, 0.0038896974336732086, 0.0010722783011530377, 0.0011552730897971038, 0.0007335385762000301, 0.003002022242780368, 0.00263043407374174, -0.004197430796890643, 0.0017848697393758614, -0.0008610586297761484, 0.0012394307702879729, -0.0013698657920108992, 0.00360814236596265, 0.003204430679202625, -0.0007759152202592131, -0.0024039467680673967, -0.0012530427589872795, 0.0012220215032540923, 0.004848712675304457, -0.0036180236544892655, -0.004478091872822756, 5.630368563705208e-05, 0.0037529881302509087, -0.0012930078628027065, -0.00136757800981683, 0.0012620641059492921, -0.00039548312291239236, -0.004839861039813854, 0.00491000060828612, -0.00022828618865900277, 0.0009045355461225367, -0.0006515496844708346, 0.0044260320063174334, 0.0018261476067692028, 0.003286987652561967, -0.00345013187193565, -0.0037253125510056653, -0.0007099298923231925, 0.004032668019470131, -0.000498183755369367, 0.002500774080850923, 0.0013486096697384242, 0.0016849063528911953, 0.0005343816636380998, 0.004759514740091511, -0.004467762964771865, -0.0006471885810244169, 0.004761869693287269, -8.323146846118609e-05, 0.0006330660278746954, -0.000780026216866723, -0.0012506858860362748, -0.0037688893214847217, -1.7190013780581104e-05, -0.0038326505144554435, 0.0033853038088591378, -0.004933203414730474, 0.0025073402954977706], [-0.0022255892007215527, -0.002748447779452874, 0.0007728392194588964, -0.00048687821570071385, -0.00011282765541958603, 0.0026739785760027876, -0.0049488308800123134, 0.003955380390441648, -0.0008744725032693466, -0.003222548803135653, -0.004766690432175029, -0.00387466150913377, -0.00176700927183597, 0.00035314415090408665, 0.0034348622137331747, -0.004167275072077584, -0.0013462584276101373, 0.003220757256844414, -0.00333408816470648, -0.00032373660704296345, 0.004928674137231834, -0.0007087425360469456, -0.003833366231778158, -0.0011654180619461406, 0.00014776840165414348, -0.00048704536274887366, 0.0029492714146393756, -0.0021064756414271445, -0.0013592996150594552, -0.0015396795686738627, 0.00495048656661476, 0.0007512761896622125, 0.00350794398306782, -0.0006000009237831748, -0.000683632263641442, -0.0025175586790467663, -0.0003315995340189559, 3.449099312918466e-05, -0.00024248498356668237, 0.0014135899492947867, 0.0012136593926953864, -0.0026019225307106907, -0.0010044318751391054, -0.0038021498795379905, 0.0013503344847834555, -9.102639275253375e-05, -0.0005833349617312758, -0.002419385851810304, -0.004763804618546626, -0.003959600109505636, -5.925493531240295e-05, -0.002308112902637146, -0.0023673204221671585, -0.001613029551846772, 0.0017181099705579125, -0.003549197550116274, -0.004660946827934821, 0.002261746455827142, 0.002037730576018676, 0.0003858108111759852, -0.0015162327665336995, -6.80738402748602e-05, -0.004875146847158567, -0.00220865129984696, 0.0033761181728249974, 0.0026776375530130547, 0.0034730330415382446, -0.0010265234306112312, 0.003351107414458188, 0.002425570239743902, 0.0036190699108400908, 0.004712953422207663, 0.001926544945272969, 0.0034016813229333425, 0.001136590981449203, 0.0038471358279900227, -0.0031798340182790244, 0.003748954880006052, 0.00040721086548071127, 0.0037831246014590663, 0.0021055587294842616, -0.0017204787415822298, -0.0006453291327277698, 0.003957112695387414, -0.003921106457206899, 0.002624828076790509, 0.0013193648741487629, -0.004699056749471658, 0.003974261204265173, 0.004065064010329447, 0.0012337538689498285, 0.0036974776829753883, -0.002946440008820015, -0.004926535835163789, 0.004820873139477054, 0.0024544138086254027, 0.003237201668793345, 0.0013148256742829927, -0.001972110184253191, -0.0036158861940547874], [-0.002999363046120037, -0.004470420111110443, 0.003705383994936675, -0.001969821223578242, 0.0031478427071125565, 0.004408081331643128, -0.0029831976402743487, -0.0015437672202524167, 0.0012085102568506721, 0.0030149944180115585, -0.002057386069781689, 0.00444635677275368, -0.0036896133794500716, -0.004920744279021966, 0.0029526244671235274, -0.0023994252743949063, -0.0046790431483494325, -0.0039056288528027394, 0.000609405291912792, 0.0015870566681198597, 0.00286548779031045, 0.004486280427070429, 0.0022171163841685267, 0.004345712390897489, 0.0007046070471536737, 0.004409781376319674, -0.002520522824335432, -0.00028118036527456907, -0.0008589321440813473, -0.0030654334113513594, 0.0035985275471224374, -0.0008640925255356882, 0.003938343774443866, 0.002365470495058755, -0.004995115484628977, 0.0033657368738115217, -0.0004393596480856028, 0.002240086611436201, 0.0015828952731913627, 0.004788822081755057, -0.002282959793128457, 0.002909328883562886, 0.00145457262311574, -0.0007420232764530901, -0.0011346761138906836, 0.0029085293566137012, 8.710925903179442e-05, 0.002201373997509062, 0.0011148460727212432, 0.00022182923292246842, 0.001517907313538988, -0.0010283450471094613, -0.002577741293472745, -0.0021659699845397195, -0.0039887574258094674, -0.002543873836652305, -0.002438645033070599, 0.003292130319310434, 0.0035581186821892893, 0.003310869222381355, -0.004769473267808581, -0.004204095124307413, -0.0034054594046134014, -0.0011201827258520403, 0.004965117588930969, 0.00166621169299511, 0.003571880579651513, 0.0024075439216492776, -0.0003078728422070444, -0.00022013302874792067, 0.0033492007041640197, -0.0006457941482688996, 0.0006085149260552994, -0.0036440193438257496, 0.00029878130070368474, -0.0010653046616391241, -0.0042033955617567465, 0.0029776666694806718, -0.001302401645890702, -0.0027576069255651537, 0.0014324033125342498, 0.003252469667033798, -0.004561419462417934, -0.00013590561240416684, -0.0005667553416919182, -0.0030118664603066047, -0.0010617087492513742, -0.004640228657003296, 0.0018249790329306226, -0.0026773011994647923, -0.0033908782286846796, -0.0035774176795149186, -0.002843459855269316, -0.002861330403220449, 0.002209222042143219, -0.001699131583193674, 0.0033340280254723605, 0.0005710967734754756, -0.0002560692375334064, 0.0008497406406964151], [-0.0012934885158136377, 0.0045103142017594, -0.0009263745126961145, 0.001054335139692682, 0.004533459244625019, -0.0007284268940977497, 0.0026271395380015657, -0.0011610234767376105, 0.00255030613353943, 0.004698509036193461, 0.0007022684093395707, -0.0048467133498184475, -0.0024953056416532806, -0.0018289429634638543, 0.0005049257746838369, -0.0022730913758057625, 0.0031224127085893493, -0.004847305426511004, 0.0006539680976804163, -0.0034765046438544655, 1.0453865736675602e-05, -0.00479629795591474, 0.000675553068242434, -0.0007142686892667718, 0.0017377122595673812, -0.0010838288614693492, 0.0021170388301851506, 0.0016346325036635427, -0.00248374444173866, -0.0030363355130646774, 0.004901129502743185, 0.0032230874841489747, 0.0002984105954138292, 0.0024979397137468917, 0.0019436421029323213, 0.0018997816452226805, -0.0037873852958326473, 0.0036367588014205596, 0.001142424851646809, 0.003676224585705699, 0.0021148623863810976, -0.0011444302811555018, 0.0018963066844101453, 0.0033983438064107982, -0.0045815241349507945, 0.0037615141263862345, 0.0020646704387349115, -0.004321682050885194, 0.002737344362400627, -0.0017037869012521312, 0.0032565185037552622, 0.0017385774292967438, -0.00017986262902517942, -0.0009261708580979508, 0.0024627269599690783, 0.0031020515999909933, -0.004187439352783465, 0.004146518372385975, 0.0010716840906291394, -0.0018945294087988319, -0.003759707859323974, 0.0034164900951763983, 0.003516264883271344, 0.004490885597397778, 0.00019548629912467894, 0.0027770392011391446, 0.0024700309271285022, -0.0018280572371210469, -0.0029282725660425436, 0.00027833561507919005, -0.0036351891085021682, 0.00033037839824705956, -0.002000826940536409, 0.004355031732821546, 0.004711766902183781, -0.0048358941058852046, 0.0002955550306724406, 0.00152325882396137, 0.003389486454994866, -0.0016485888346179879, -0.0016709308834004346, -0.0007300185716237776, 0.0009715210762087593, 0.003794497618977109, 0.002882020087119551, 0.00034463981768075285, -0.0024731702879527695, -0.0027628653104970215, -0.0002697031500235262, -0.002957857885955172, -0.0020741722214714, 0.0013883634476994791, -5.961148624942722e-05, 0.0029833008081994105, 0.004608211881865331, -0.0014540316717514359, -0.000176836034541601, 0.0014891167605724344, -0.004019189508805272, 0.003797291147213561], [0.003019273016164839, 0.004154836253590209, 0.0023266961600692535, 0.0022311649194097036, -0.004193657249701213, 0.003087226854759863, -0.003677648649772193, -0.003071791496273139, -0.00013787467473854852, 0.00017620195132059344, 0.0034003267619683837, 0.0030153263093775076, 0.003695818757940234, 0.004948889320303368, -0.0041331042984154055, -0.004523916491938357, 0.004095262123562804, 0.0022515385564512583, 0.001572887120373445, 0.003328237286371753, 0.0038751168474800554, 0.0008006555152104489, -0.004288247214548153, -0.0043574895897874385, -0.0010959792027189952, -0.0038256963779360643, -0.0032468540333525434, -0.0001932501136722685, -0.00042754734860643746, -0.0033840005062097667, 0.004269866060937153, 0.00010461393420853424, 0.0017031380748014722, -0.0003436533112904953, 0.002670038794289068, 0.0004183795904332665, 0.0013786833813541587, -0.0002856577391256972, -0.004859579551870652, 0.0028387001005920716, 0.00017459701430599505, -0.003906506040326805, 4.620393685868078e-06, -0.00048101323454649656, -0.0022595951268245453, 0.0003446612464328754, 0.000751947171137122, -0.004404037365373988, -0.0036910413113722083, -0.004206631284059531, 0.00391362505550921, -0.004862207463510791, 0.0015128004695712264, -0.00431207989014739, -0.004343995206041792, 0.004616365624177822, 0.004999793992436903, -0.001918657929566042, 0.0007298356306949076, -0.004333207168725218, 0.0031063540496334722, -0.004198821635776287, 0.004692963891419753, -0.004974072085543248, 0.0015152403743747466, 0.0010975206089136567, 0.0012595652138503019, 0.004767741869133635, -0.002150639603758283, -0.0030495351249143574, 0.00012298032418152534, 0.0038609655756219738, -0.003934306140251816, 0.0032483238288121977, -0.0016435838674334225, -0.003611783638706646, 0.000718164330371732, -0.0033631448602207915, 0.0015261332104918868, -0.002640048034673532, 0.0008287425005002345, -0.0034349211166188496, -0.001178199787562022, 0.0021510695658044175, -0.004253020046671664, -0.004885487562658203, 0.0009090105281727313, 0.0024945819322288064, 0.0048902931376783075, -0.002752768449437677, 0.00266073803991297, 0.0005463940498374063, 0.002432639491556713, -0.0029411227026617083, -0.003993089168438313, -0.002298933520698893, -0.0019086804213433164, 0.00020592004553232884, -0.0023239987155579643, 0.004101748773729089], [0.0032868563458379315, -0.0020531538468771117, 0.0025182507417333463, -0.0037308455090232628, 0.0029061347295561363, 0.0025107305224862002, -0.004976687139858314, -0.001729483019743949, 0.0016877644540217373, -0.0012675475747340337, -0.0003570519996687919, 0.004103674724060486, 0.001041543487441927, 0.0023435249866490806, 0.0047048132987368525, -0.00019089643615810212, 0.003911512466021138, -0.0007760951393823547, 0.0011165095542932804, -0.0012453244073661086, -0.0035825210699740495, 0.004435531999372236, -0.0003505529072766189, -0.0023487014899629313, 0.003957778036158357, -0.00013779371844220654, -0.001934660994281352, 0.0033841545175173618, -0.003646263491327203, -0.00375012984561647, -0.0030551176283828843, -0.004104700957171086, -0.0046173473426119535, -0.0012265702625015996, 0.00212332469957237, 0.0029893528493817228, -0.003673131596743211, -0.003770200509661783, -0.0025141210992669616, 0.004216508694959196, 0.004226773134507435, -0.004162665807595491, 0.0036096711764290372, 0.003855501934296621, 0.0036754726412197977, 0.0032304754150145514, -0.003423781973062968, -0.0010008092177539356, -0.0010846810996384326, 0.0011916526035313834, -0.004732824387728142, -0.004995496846957477, -0.002091788528009074, 0.0037991655595869924, -0.0013425860342817842, -0.0033347033752520105, 0.002330627878209401, -0.004021721806293953, 0.004996711088156624, -0.00039313223578908187, 0.0006294497810604574, -0.001280806384715285, 0.0033122871189369433, 0.0035804516777058508, 0.0048409177403299876, 0.003880361833262712, -0.00010915197148341979, -0.003527670013364913, -0.001957291236729828, 0.0031876300310143034, -0.0027478272466581522, -0.00284991140955712, 0.0018507325860404236, 0.0008402074663278096, 0.0029666184721107635, 0.0046017261939499616, -0.0036916263653274982, -0.0036078347712641713, 0.002453516176131843, 0.0022659989132774424, -0.0016214275416557957, 0.0029566576055204243, -0.0012368271878089887, 0.0014010670587154836, 0.0028790174521466936, 0.003411401777215211, -0.0026651432214144055, 0.001053326702652322, 0.0035713140849704004, -0.0006787480493660484, -0.004420894387473947, 2.8899275094723675e-05, -0.0008460810495894968, 0.0029798074529391655, 0.004399054619740381, -0.0017343012411453842, 0.0018096746790065375, -0.002365754878451569, -0.0017098829999683597, -0.003930862072785653], [-0.0007642200533937013, -0.001224721161625867, -0.003680502567896219, -0.002088805968360332, -0.0024785698554642566, 0.0036898710604701063, -0.003945914954655072, -0.001882248466535297, 0.004537822429113029, 0.003548240561262018, 0.0017079403677341233, 2.523955813490096e-05, 0.004444297238257838, -0.0017593171835558218, -0.0007631510791592357, -0.004925350641890373, -0.0015181846847394241, 0.0031271775030588716, 0.00319019975511482, 0.0022215224268294174, 0.004392533472006697, 0.004374128116945738, 0.0024859135710511657, 0.003677465955199696, 0.0036805401551167445, -0.0015192144568774847, -0.0021733749774510594, 0.002815113298458732, -0.003127818528701647, -0.0037964687672305134, -0.004047579484753134, -0.002826929422172587, -0.004043490401039449, 0.0019427976703680783, 0.001960809507608039, -0.0039802219245956266, -0.0011095783409639259, -0.0004935427349672984, 0.0012079018925343363, -0.003295970488135884, 0.0022786817344273578, -0.003122583797913293, -0.004936634847057519, -0.0010271791398836641, 0.0006903865834457503, 0.0001745674658049541, -0.00419920589637127, 0.0012851599499013374, 0.004673415754957995, 0.002574226015167486, 0.0028122414176177998, -0.00020074318644928025, -0.00034150773278079655, 0.00470653290689448, 0.0014423449584425162, -0.0010616825553434982, 0.0025271299690385815, 0.0008687654342004018, 0.004296495862771174, -0.002216891604034005, 0.004450807794406582, 0.002388079373345212, -0.00267903989950563, -0.0035786854071993457, -0.0035643054942487828, -0.004284660120919024, -0.0019340685578019923, -0.003762846121253203, 0.0007765095813235005, -0.004062589771472184, -0.0019695329753641557, -6.990010936280735e-05, -0.002475585476167548, -0.0004912116299029745, 0.0017038918057598641, 0.003737819012148854, 0.00026383702463747116, 0.0008729594521652744, -0.004019056637902788, 0.0046998440190121485, 0.004307082770020278, 0.002987226278658414, 0.004483566179923143, -0.0009824543914041198, -0.0018744986350803607, 0.004741150308366305, -0.004638313980363707, -0.0033408249749746497, 0.004369264290560286, 0.00427342149526033, 0.004976590125461577, -0.0024121948725164288, 0.0013499294867098692, -0.004018804963461638, 0.0003834909263045515, -0.0032432176184148363, -0.004249681586398921, 0.0002671286758291437, 0.0009760417875042246, -0.002088642693827065], [-0.0038657727033073455, -0.003330042938754032, -0.0022617960418220206, -0.003191085874220576, 0.00018153153594282177, -0.003725730602724764, -0.0005706429876368609, 0.004345397393638275, 0.0009346815807459727, 0.0011648567092343819, 0.00427901698466177, 0.0019244959615654922, -0.0021886835244483826, 0.0039284746824792246, -0.001199423408093302, 0.004845702686840414, 0.0017548256106951965, -0.0038808651035026976, -0.001158079465250109, -0.0025418230794018106, 0.004529626552106164, -0.003924281522781895, 0.001265077734302289, -0.0028969091173815654, 0.0007314971782663151, -0.0043960778470902, 0.003094090949547071, -0.003778614942613465, 0.002192164656151161, 0.0004219916111188578, 0.00016652840751897081, -0.0003943105757970222, -7.24354863840624e-05, 0.004917355810097327, 0.004176108693730452, 0.0022936267326894204, 0.00391417623775515, -0.003969169724251804, 0.0022813117152709027, 0.0025857274379518782, 0.003627158520549653, 0.004977317236480767, 0.0041279791936551765, 0.0001057882692289654, 0.001979812212068114, 0.0003558146627987979, 0.002749111334768065, 0.0016786113125328087, -0.0022853431650986388, 0.002793525913772843, -0.004972410324293892, -0.0017195303038557187, -0.0034141354227728684, -0.0006873340474216139, -0.0009100345029192302, -0.004644742693043448, 0.0034123465155728337, -0.00029651618804751867, 0.004422067519196827, 0.000884872423781444, -0.0038954151218876945, 0.0001423416355709542, -0.0034052660371668188, 0.0013120682740837995, 0.0007271447291345833, -0.0047786345546867275, -0.004145294513461101, 0.002543202508348147, -0.001423664109483498, 0.0011171857682561962, 0.0014925764423055123, -0.0028839820982997366, 0.0034864340038651366, -0.0039880944386139075, -0.00017305345435479538, 0.004568242328711835, 0.0012279858034256906, 0.001649893295416571, 0.003825473480879342, 0.0007913918101852113, 0.0041858065507233795, 0.001635675564759866, -0.003736115678722841, 0.0016719837263840008, 0.004086608695657467, 0.0024036344395787328, -0.0029731178649526104, 0.0025630371526638163, -0.002031309817157584, 0.003666811233755763, 0.003928139471158397, 0.001492328074618944, 0.001924831409011488, 0.0015047749208232887, -0.0013538925853961992, -0.0048125370937065785, -0.0012639097856626791, 0.0007368902138765584, 0.0006476702612319219, -0.0047053217426474316], [0.0021503265955379325, 0.00028990070923241764, -0.0005677221088480674, -0.004804390934007379, 0.002879661294951575, 0.0028793309936072783, 0.0018753655381505904, 0.000687270670636537, 0.0027890203172302877, -0.0003447482795573241, 0.001061378163786663, 0.0022874900199430573, 0.00488568109026311, -0.0012625715190392106, 0.0006607746088985135, -0.002110477386095617, -0.004513849774732699, -0.0049029181621758665, 0.004858191106607043, -0.002583308019225806, 0.001889885961317275, -0.0033728175091821268, -0.004081588998633831, -0.0006959474018743495, 0.0003793004427995782, 0.004869579626024961, 5.753535134173787e-08, -0.003482717331088489, -0.001168394781006533, -0.0011090232787029, 0.0036185179335972107, -0.0015345043578216776, 0.004516791741397263, -0.0007688211236768269, 0.002897486078448805, -0.00481166700838454, 0.003853790446663859, 0.0012302002515110853, -0.0006897314909680603, -0.004173350948587335, 0.0010900265685661855, -0.0016441054647043595, -0.0027191135912525335, -0.004135977353828986, 0.0027523593853835474, 0.004880219948917383, 0.0007843258568143493, 0.003412639104734318, 0.004322797043144785, -0.004280601537412994, 0.004828098997993905, -0.004321575429804871, 0.00478073638085916, -0.004690965838629888, -0.004953303554521155, 0.0002992059684217797, -0.002750452593868613, -0.0042161451981559475, 0.0036800275919790177, 0.004361207499059778, 0.0027540932743138537, 8.298114233026149e-07, -0.002462733119196209, 0.004747839258175454, -0.0029059308944646024, 0.0042510973612887104, -0.0013953399207284, -0.00421568472296045, 0.0020267833065173687, 0.004539469755131561, 0.0011366374012354548, -0.0013384810710177918, 0.004670506953132303, 0.004672559694745751, 0.0038714263003123946, -0.0021434044466679524, 0.0004815222957119305, 0.002546543563779629, 0.002020312415731723, 0.0025889241502370644, 0.004158358533729356, 0.0006508755127527808, 0.004543803495055984, 0.001274132241105977, 0.0015227316304631602, 0.0014987529627002684, 0.0022392515970219183, 0.003930794867910293, 0.0006557799856445968, 0.003167141630892589, 0.0031931096020195076, 0.0017592027409190514, 0.000625793428782999, 0.004010676187996535, -0.003215042690929325, 0.003635577142210223, -0.0006594451734752817, -0.00014805430399008907, 0.00045911055811885624, -0.0009332081214402134], [0.004321004850206697, -0.0029727695769281703, -0.0024172317170629023, -0.0007752310967790825, 0.0016809122965422904, 0.0020921780416612605, -0.0015372035850566659, -0.0009000873982852198, 0.0014048403676313395, -0.0019364935975664933, -0.003017689145986616, -0.004026526465913199, -0.0045160830094109795, 0.0006459455896350007, -0.004215769655738879, 0.0014159005538553647, 0.00018144621774880167, 0.004040391250064554, 0.004849229177816613, -0.004143273753240627, -0.0008270008289064457, 0.002409072238106447, -0.002085785905273686, -0.004326295437331771, 0.00418412121701175, 0.000396646828802554, 0.0015574663377572497, -0.0008081016545142365, -0.003325664002501623, -0.0001901855005699551, 0.001663059042826565, 0.004576010624879288, -0.0005221139754414258, -0.0014853781612099706, -0.0004517445186618422, -0.0003267251425878434, -0.0033362462452845368, 0.004332767762689396, 0.0004342225813546343, -0.00479581665844376, 0.0016032807986235418, 8.326129263098916e-05, -0.002387472387144116, -0.004045691331548482, -0.002068186246100532, 0.0007414005392763108, -0.002894308030638212, -0.00033475522104273094, 0.004668375447677426, 0.0018284305114458933, -0.0043634947719232734, -0.003576098442465826, -0.0048498764010051236, 0.0028073712734446275, 0.0003569274184622613, 9.009007293829183e-05, -0.0032528337534284348, 0.002504187215547373, -0.0014109708556633285, 0.00324479106937198, 0.001477635626810147, 0.001560129655448969, 0.004631294770516297, -0.00377938305313857, -0.003734039852284007, 0.0025296380909690577, -0.004859560097516052, 0.0019830495993322277, -0.0039130913917945044, 0.00042889837086091277, -0.003570255726893393, 0.0012060409287980222, -0.002754451826030505, -0.0017072910804298226, 0.0023640460086659047, 0.004236710794517121, 0.0039394359043249646, -0.0035057491239765736, -0.0033721035133535224, -0.0041285207813678525, -0.0011415463687087222, 0.0028799158964393145, 0.0010132984087036258, 0.0009378697443571116, -0.0006722637484404123, 0.004467003437686014, 0.003913735231350375, 0.003134336737204647, -0.0033125977550357523, -0.0004902594337654219, -0.0019031463756916554, -0.004296644494422487, -0.0025553977937887375, 0.00011627433809280417, 0.00141532454675692, -0.0030832511325258128, 0.0022279510633361485, 0.00019747552601699723, -0.003776426125767013, 0.0008632744167915585], [-0.004709793832374692, 0.0022259312960131606, 0.004544808356980228, 0.004499694870414112, 0.0009876431708200142, 0.001838524756640327, -0.00040687797403936646, -0.003808120228773294, 0.0002950567594330565, 0.003996760159970982, -0.0047605577483895755, -0.004956966176764931, 0.0018444427903174217, -0.004935320596683172, 0.004314671339983996, 0.003186322129536544, 0.0031946627741620834, -0.0010462857576059208, -0.0032506041447739943, 0.004274296303709788, 0.0037163101884823335, -0.00493093796530109, 0.001192301090215806, -0.0034125749396832737, 0.001543365245292607, -0.004828651039754645, -0.0019563370449924046, -0.003824601825178661, 0.0023915059697349594, -0.004275754668877549, 0.0011055696708347816, 0.0014734231236657805, 0.003700721026823859, -0.0012135126213017322, 0.0005526833848847681, -0.0014030059493351545, 0.00041633829134303177, 0.00150853216674095, -0.0007563863483746212, -0.0033196933715837007, 0.002209643379360292, -0.0012627338642360285, -0.0011014600108738139, -0.0010375271466994771, -0.0042694920752512616, 0.00035592324708691014, 0.0027102006986378805, 0.0035752202919206435, -0.0005473536026673279, 0.0013704098443960118, -0.0017421451489505668, -0.00408258005901007, 0.0026234641038309584, -0.003552023645610686, -0.0013175198891652298, -0.002469456946026457, 0.0022978873587809453, 0.0042000381593626, -0.0005988678801595749, -0.0003384008225951439, -0.004211423616352135, -0.00044642818201440747, 0.0020151972919362623, -0.0016305018273720172, -0.0006742768764475314, 0.0006308179171893346, -0.0036299602226933627, 0.0011399338839652154, 0.0035485297851254654, -0.0014439773898958942, 0.00119784189244588, 0.0024892827028765866, -0.003989070979027905, 0.0016647720076580575, 0.0008974851900306214, 0.00326331790897924, -0.002269058900506298, -0.002144965693519462, -0.004984554976723655, -0.004682790666646759, -2.141678508836651e-05, -0.0017792752244223755, -0.002578287704082657, -0.0011211339856820844, 0.0024565612938449687, 0.0013710932840235932, -0.002187294804935662, -0.00033251869129403023, 0.0037710706074145514, 0.0034940637778566623, -0.00024602611122113635, 0.0002820455620024462, 0.003502776690516309, 0.00463688574747432, -0.0019202269945178077, 0.0005415709909442137, 0.00012002238342088273, 0.0028152454330014525, -0.0019227808117520282, 0.00371727142560127], [0.003131225599052204, -0.0032640765157742435, -0.00016664383801080589, 0.0006309722077381804, -0.0020962040019838622, -0.004227327874354492, -0.0007751596636571137, 0.0037944726807378976, -0.0026088479192093285, 0.003426644780959478, 0.002042416032171517, -0.00187699582231745, -0.002903579065955243, -0.002382223796448374, -0.0005117702681545723, -0.0023588342476688184, -0.0028544867828421173, -0.0010506652869481745, -0.0024722963199258763, -0.0036015203413494656, 0.004872002406518657, 0.0017967792719242202, 0.0016522746265913643, -0.0036367922941314126, 0.003470997392170495, -0.004056849880750081, -0.0023554495149102684, 0.0022306926516831973, -0.0009714670421807877, 0.004938873808863803, -0.001291798597735998, 0.002130424220895254, 0.0019491003483753282, 0.0026089780438159453, 0.00253714255987758, 0.0016321801687068623, -0.0022020259896481653, -0.004172734738390843, 0.0005605804922346217, -0.003001180355108101, 0.0003916107030708226, -0.00084236025007967, 0.00193402901211678, 0.0018890056500803368, -0.0024174435064754176, 0.0006894421275110037, -0.004363280668983801, 0.0035221407925685776, -1.9819497935368198e-05, 0.0038109142254674705, -0.0002915198444677306, -0.0036200275292212324, -0.004539127975869856, -0.0016295470551949522, 0.0034746766696099963, -0.0007727310550318112, -0.00035600154260273433, 0.0008836115305689684, 0.00476871508675874, -0.0028136193614415597, -0.0005315702541156863, 0.00017537953111190427, 0.000938219373084033, -0.004777045308576332, -0.0001943609507848755, 0.0043901298578096154, -0.0031755836856379215, -0.0016312400834498663, 0.002879483135914014, -0.004864331404737786, -0.001392037873347558, -0.0004042444300411275, 0.00011568685187036618, -0.001170894411103819, 0.003079322493683892, -0.0042377050281907445, 0.004793015718802766, -0.003995059240358603, -0.004030149890883739, -0.003994471055639003, -0.0036838788660678813, 0.0032521389935900253, 0.0001652187494123455, 0.0037329285834780306, 0.0015280529104401029, 0.00017992098627313009, 0.001002331144381522, -0.001712118766044568, -0.0033107592103277196, -0.0010792200726437709, -0.001991595249100058, 0.0019044270513672978, -0.0013196833022805932, 0.003801181669130414, -0.0042779916827135455, 0.004209813969868405, 0.004143299602824579, 0.004860817350041977, 0.004180572163303443, -0.004855917288072723], [-0.0029941738891576274, 0.0026039284459613296, -0.001415893018577774, 0.004408379601512225, -0.0010671993433459407, -0.0012344722497585926, -0.004622479487906239, -0.0043005755165768655, -0.0012087073658077073, 0.004151067762530406, 0.00358909583749869, 0.0014688500633794075, -0.0018592616578091128, 0.004914378580872574, -0.001846072607539303, -0.004166747734154668, 0.004279578586129997, 0.0009800872406429328, 0.0019541929459273733, -0.0003585704200590933, -0.0011777854602605842, 0.00388438403028503, 0.002260869586618074, 0.0033806577988033477, 0.002960819304146672, 0.00016886132545628884, 0.003871528978696674, -0.0038050259340590862, -0.0019897030208899037, 0.004211163701090083, -0.0017484125394337346, -0.0009610905015693038, -0.001543619375524137, 0.0013041785216316645, 0.0024029104434964733, 0.0019869840604392897, -0.0026305339496566216, 0.003923704347241174, 0.0008333478918643219, -0.0017116737927593039, -0.003960505271279183, 0.0024600901401060707, 0.0016432599313886175, -0.0009126864267988621, 0.0028853191455782317, 0.004081544926244134, -0.0009067399172441072, -0.0037451213573501145, 0.002042557189360769, 0.0008487565412676609, 0.0039875383537878424, 0.0033674120093902292, -0.0011604373318755625, -0.004685550533298303, -0.0016717051312056344, 0.0028833153665717348, -0.0007946558795721252, -0.0049947729385445075, -0.0033092715549485276, 0.0023450875361650117, -0.0036643691071968363, -0.0038464003005533364, -0.003426492102806493, 0.004532507832505836, -0.0026368634155132164, 0.0006968749200720985, -0.00107905697133531, -0.0009988662203101418, 0.0010953800205041513, 0.0027303334790019307, 0.001543580604256337, -0.0037756225722071746, 0.004237308485023006, -0.0008959722096954911, -0.0024743291937076705, -0.0047641881333698845, 7.072178475380896e-05, -0.0017939352541743426, -0.002333618292191714, -0.0023481129763330976, 0.0028066470498763077, 0.0011224844099823258, -0.001286406151806928, -0.004274451856091249, -0.002284734208757664, 0.002615855565712433, 0.001959626692875265, 0.00404797336547904, 0.0009495909366764232, -0.004096701685466182, -0.003341948738930796, 0.0022505754677088893, -0.0038823941394153785, -0.003352140133996263, 0.0002366674321265241, -0.0040916772685743695, 0.0007828851081020495, -0.0001830739166975362, -0.004823913620055548, -0.0009069533051045886], [-0.003118241748115567, 1.9516770064641198e-05, 0.0018793644438713317, 0.0009731551061627208, -0.002298154160481153, -0.0006423346952731997, 0.004898483536464253, -0.0026925306761165814, 0.001987589757258959, 0.002115607509168323, 0.0013696852537365281, -0.004507943056166909, 0.003660469989675925, -0.001234941596086574, 0.0035663082663891744, 0.0040181643852115695, 0.002613480862476071, -0.004349916887082154, -0.0010539890134931172, 0.0036448787768220406, -0.002771095493711142, 0.0038873321413777336, -0.0038298037652868457, 0.0020153463450965914, -0.00026294144257841233, -0.0011056884427360692, -0.00317424286936973, 0.0018387587184691464, -0.004728870750069164, 0.00048356564871719805, -0.0016430317989907617, -0.00421741894341194, 0.004386399627035486, -0.0009300492384176099, -0.002471534818619683, -0.004339721481917056, 0.004537456166939611, -0.0004466205344029481, 0.0019331277268387981, 0.00395922775241487, 0.0007239034286583516, -0.002801169612953709, 0.004434115539763284, 0.002600744028228669, -0.0008478686429183426, -0.0031053609580986275, -0.004967962757852972, -0.001083187428815355, -0.0013298331705354585, -0.002132090067942325, 0.0031398127607673845, 0.000963969606405911, -0.001273197401782633, 0.0036726687043742894, 0.0007992810085430176, 0.0043089713369717465, -0.002884700081471059, -0.0015256897034597338, 0.0011345462202582137, 0.0033006483880539403, 0.0016643216552478237, -0.002351769224408261, -0.0004446561808647111, -0.001848689584823062, 0.0017503993830031974, -0.004748126854178372, 0.0025788158454136314, 0.0005305197303044698, -0.00024204756438807144, 0.0018390485044635042, 0.001398079921073667, -0.004897555339138756, -0.0018959724389435405, 0.0017116664363591464, 0.003954331318058154, -0.0007511076300731204, 0.0011441645497543788, -0.003098551321042178, 0.004366182496703153, 0.0022179688643836635, -0.0033336272350199527, -0.0024047750056543915, -0.004861861956605339, 0.0006187839109031076, -0.002596765878533155, -0.0021189598247975216, -0.003409297062943492, -0.0007485956781191506, -0.00032447737405275415, 0.004500232698624059, 0.0029074211504735133, 0.0027535570076279844, -0.0021750783965155287, 0.0018608044937765767, -0.001039623317771696, 0.00016262475487899362, 0.0029357194865552707, 0.0004997112788380775, -0.0029200089538021457, 0.0014105793191520897], [-0.002925021862203705, 0.0008446196607121634, -0.002460011263243528, -0.0009367040116082326, -0.004061575548344725, -0.00040093717525514685, 0.00015472514512542088, 0.0037994126349083284, -0.002837510135029635, -0.001023153336223122, 0.004299477583679459, 0.003106173849258323, -0.0020094438458773956, 0.0010231778069857101, -0.002185410690279893, 0.004549873066231611, 0.00018310367318885665, 0.004327550209687885, 0.002343477580714224, -0.002559516249157333, 2.0328576394228366e-05, 0.0031490116154876966, 0.0013765637440197277, 0.0005669111762525445, -0.0007852395939039278, -0.004034397110415084, -0.0037984884003026418, -0.002955749273822507, -0.002096817665865144, 0.0023530110522562743, -0.0029008236510534523, 0.00383920977339836, 0.0018431574867164803, -0.0015558793820261464, -0.0007265923031123476, -0.0028921941657877714, -0.004810036097914958, -0.0001703629094435043, -0.004186704263294016, 0.0025359109891537448, 0.004943401704899542, -0.00021561205579951823, -0.00046240977003125707, 0.0034520115964010887, -0.00029544060366402773, -0.0032539806656086048, -0.004551770657679821, 0.0028678581960148814, -0.0018631360994238399, 0.002955749906477457, -0.0006720853198187984, 0.0035290343486500198, 0.0006190875236367823, -0.0009325739443846017, -0.0005071818748003153, -0.004021031103370767, 0.00335045478335736, -0.002964491516257034, -0.00033996652980856305, 0.002141461774622778, -0.0007674041968666499, -0.003234253868640271, 0.00020420533128965787, -0.0019284988627408651, -0.0030976455957195882, 0.0014281019272094084, -0.002726729225909503, -0.002529515343228289, 0.00033335834990939287, 0.004020731297138243, 0.004573362627961579, 0.0040942108211536885, 0.004029529241982834, -0.0018601535623521382, 0.004618383858612276, -0.0026401324997368035, 0.0049826712490134, -0.0023787139733635544, 0.002934778795293463, 0.00194669988856339, 0.0037225667573687156, -0.0038260644619389963, 0.003308241160238299, 0.003359126026508245, 0.002549118854914316, -0.003128110845530243, 0.001989562975833542, -0.0031760680500313243, 0.004979131661856941, 0.001734609229015088, 0.0017998074057367095, 0.00307244887742321, 0.004581602019881652, -0.0025401118724243054, -0.004015191029198613, 0.00021726334247173726, -0.0041033194599503185, -0.00110926080668295, 0.004763917136671714, 0.0014525081300323754], [-0.0033462196215560567, -0.0020742603694312014, 0.0013142254506929366, 5.144228101123388e-05, -0.004214788756664644, -0.0021823950444962202, -0.004068611078831719, 0.0030692951690389587, 0.00026306687766728537, 0.0008926782015471844, -0.0008560468492792763, -0.003361338469330062, 0.004618035984849374, -0.0035965843336388326, 0.0036154690693135016, 0.004636449739097861, -0.0027838106998212754, -0.003992872394225175, 0.00012780507277418678, -0.004161374936888696, 0.004527429994590161, 0.0027845748555240133, -0.003638987311271276, -0.0029648568331726213, -0.0015643601702869069, 0.0013156554567011428, 0.0026192863895733312, 0.004943224879517357, 0.0032521053633568038, 0.0014055179569013787, 0.004842291764051976, 0.0049678065089063745, 0.0030624975725909104, -0.0028747881636375194, 0.0030074621698002084, 0.0004143713288195872, -0.002042887151514381, -4.693993807080004e-05, 0.0023412032599713674, -0.0036258406030418, 0.0020895832136293866, -0.0021631286598204815, 0.0049269519411156175, -0.0013952192510975183, -0.002147757248181951, -2.9682814942057906e-05, -0.000367518099847375, 0.0035539213494769116, 0.0023022562768759336, 0.0036784151281612264, 0.00435463902398014, 0.0042316572528511035, 0.0023869784071346937, -0.0024625696079479766, -0.0022822453627263286, -0.0023811181240305135, -0.00035351873197740115, 0.002076966147953084, -0.002049324272148878, 0.003215498375218167, 0.00038614381809314556, 0.0006732211679733261, 0.004585313045398317, -0.0021720763574735614, 0.003654067616450543, -0.004312385086711994, 0.0018923381841940727, 0.0017967259891180087, -0.0027818812812168514, -0.0030086162247855174, 0.0021437392875647797, -0.0016789870420276178, 0.0039393561508817, 0.0010462988649539541, -0.00349775575073485, -0.00028047181554731286, -0.004578415057184293, 0.0010691080990839928, 0.002392878870611438, -0.001239743752907745, -0.0047670230655893, -0.0032935944928316886, 0.0031621938427111125, 0.003152781687310576, -0.0009983834142607909, 0.0042605812101535615, 0.0035125169843101345, -0.002817451326468257, -0.003165867508626942, 0.004836215193765648, -0.0011691470412556705, 0.003895566820458443, -0.003658203647184326, -0.0004016353195629499, 0.0018343724194555813, -0.000854913832001987, -0.001713283399027099, -0.0027419881130291922, -0.0011223204840147007, -0.002108338813179901], [0.0006162908617952092, 0.003520494053199032, 0.0024562436139831103, 0.0005026320759633817, -0.0016934313687592848, 0.004559116136044689, 0.003585304106711459, 0.0013916565751040666, -0.0019599561662780552, 0.0044762664408986965, -0.00488724281316951, -0.0026225387503656327, -0.0011172906808205652, 0.003709075689618536, 0.0035981110841222528, -0.003518883632844294, -0.002349729087160343, -0.002765047669699112, 0.0018452490960057478, 0.003708014070408417, 0.0044914210357397235, -4.537653238921406e-05, -0.0008314774242064405, -6.11047274372235e-05, 0.0027755409104635457, -0.0016097137797693051, -0.0011324034456012821, 0.0032025194493134996, 0.0013539337320188395, 4.351983701836228e-05, 0.003487139232479608, 0.004417699641515443, -0.0020286678575124817, -0.004326453436098581, -0.001939203206699205, -0.0041731752841353545, 0.0035586809817044424, -0.0022416300614396434, 0.002127553523771056, 9.158612277184418e-05, 0.004122910437898741, -0.0029478311868437568, -0.002377291556032715, -0.004222907162631458, 0.0006733169099223738, -0.0029049821033138357, -0.00046124709111139417, -0.0001658774107630599, 0.0023244756123447065, -0.002409072768940607, 0.0022656657142216853, -0.00075849338898066, -0.0012844939260426512, -0.0014624912864672811, -0.00010415532141606638, -0.00444044676794201, 0.002423269921294125, -0.0036057316738414714, 0.0020954376706592472, 0.0009765888600947346, 0.0004573539370430037, -0.0010153453973919067, 0.001233484832215046, 0.0022104367855664683, -0.0018840938251867777, -0.001911375958616859, -0.0013408412212669142, -0.001631216756489977, -0.003099310051490999, -0.003375829170226127, 0.0035035549326869917, 0.0014173162654912393, 0.003102088507433859, -0.0024840223119408133, 0.0016553180534631985, -0.004101202757988998, 0.0035587318072366507, 0.004718842805746582, -0.001023092971900369, 0.0023654286324258133, -0.0022558195148825377, 0.002538466336830643, 0.0007965454795881184, 0.003779460640033621, -0.0005157142881191965, 0.0020839205874092215, 0.004372419476844359, 0.004248634758538517, -0.0025009640850826597, -0.0026273678621096842, 0.003138807761500298, -0.0045792805388273905, 0.0008761714106431274, 0.0012192893348584475, 0.001037499235938412, 0.0036084730514913425, 0.0017090317018642678, 0.0036337663199476197, 0.001621633026904574, -0.003262896124611373], [-0.0002454460878840827, -0.003787004896887048, 0.0039352989957569294, 0.0004042223437456119, -0.0003616248700444493, 0.0032883356195689143, -0.0007334952106986927, -0.0021834480850484086, -0.0039515103599742345, 0.0009624383399371109, 0.0020566930993267908, 0.002315444637454693, 0.0013306452405742394, -0.0002371937305970795, 0.0032542341054227234, -0.002169391058888698, 0.003136822331381542, 0.00038895676867298484, -0.0029697221400389264, 0.001678942212869695, -0.00020256202156564672, -0.0029585035099581637, 0.004099751709854463, -0.004932049553999588, -0.00014321105779235063, 0.0028782633057735157, -0.0022403680095661673, 0.004396570234475781, -9.589143366784368e-05, 0.0010079268894083735, -0.004314376083607729, 0.00035636463174428326, 0.0010171464797216843, 0.0009248837475496772, 0.004673213700579903, 0.004895557475374435, 0.002600731524654026, 0.00020872582860326921, -0.003345494327288755, -0.0007097208408286572, 0.0021821682349631973, -0.002509640181057552, 0.0005174591520255038, -0.0026116544037424983, -0.0004880343235127904, -0.0013066239490088162, -0.004611298213150146, 0.0038005129099417086, -0.0006998436688688235, 0.0040124875219793585, 0.00048322819059064184, 0.0035439599266617423, 0.00497139226647235, 0.00448773911863004, -0.0036553705144177964, 0.0031863973774668005, 0.0031328392699047887, -0.004749326807702049, 0.002519790016023306, 0.0003728585271073944, -0.004960300434521296, -0.004644565056900045, 0.0010072775844159184, 9.503611331709502e-05, 0.000408716637375771, 0.0033645936636831656, -0.0008620678537569924, 0.0014980003728417238, -0.0013051293064067862, 0.00020384231066323394, 0.0006028914874514346, 0.0001582134949305843, -0.0023607314961819783, 0.003050659655373717, -0.0034528379651596044, 0.00023125830580306584, 0.004062879394926752, 0.0046500328308913775, 0.003187129089229519, -0.004702791780534869, 0.0025780511513849623, -0.0020521532461516855, 0.0038668576765218876, 0.0035542740303188434, -0.001839498818114611, -0.004328323601334741, 0.0015628064013698617, 0.00477892785415131, -0.0034547600906066323, -0.002202577125486166, -0.002741893708990355, -0.004011832228949799, -0.0028621535101976425, -0.0012469318071055926, 0.002693932390352192, 0.004563153163413263, 0.0032522372697841575, 0.00332189365052801, -0.000787012355031003, -0.0008314950633918515], [-0.0007216533674077423, -0.002432051963430798, -0.002725358388966699, -0.00023663156338886264, 0.0008857498206654227, 0.004312064683297547, 0.0017126631363017612, 0.004709529958579346, 0.0039000540419740102, 0.00022822527309255929, -0.003590817594786953, 0.004173198888391798, -0.0012529357761051495, 0.001768622046101803, 0.0017955031792697626, 0.0016793971822740613, -0.004024712380275719, -0.0015281490346171623, 0.003070329355988736, 0.0021600064792340343, -0.004748962412645128, -0.0028337226535565642, 0.00011842301915217755, -0.002412521451304277, 0.0013313492278326225, -0.0017473333035288741, -0.004836426127317004, 0.00106311199150101, -0.004211215844573101, 0.004068483559226258, 0.0040349138104874656, 0.0013027493623231686, 0.001833969660292898, -0.0035813425028388035, -0.0026018553247263375, -0.0024010495355182336, 0.0022941330592689147, 0.004359114167032105, 0.002773725916615422, 0.0022168594855869264, 0.004872340771456224, -0.004535901691996169, 0.0030247946160412978, -0.0021955045718402766, 0.0010515902839753656, 0.0017043190493944756, -0.00291027797275073, -0.004042236395344615, -0.002105714904611854, 0.00019499179792218345, -0.004361376881863779, -0.003641967944342379, 0.00011092262667734224, 0.00015856678984774077, 0.002307832230390482, -0.0033518673920667564, 0.003950939909306508, -0.002090366835304216, 0.004963821231146246, -0.002122955246263977, 0.004173063714838258, 0.002841232008016766, 0.002183762132435799, -0.001687261034452723, -0.0008520081991624439, 0.001215200666453288, -0.003897286288779945, -0.0013062104626416714, 0.0016425511462922534, -0.0011231125814421326, -0.002606707623278772, 0.0022887349199099257, 0.0023476485954438972, -0.004684470403193126, 0.0013809777667813774, -0.0027749811132509673, -0.0038357905021519792, 0.0003053038998193022, 0.0014573678337500718, -0.0007845460912104581, -0.00028596503707982793, 0.000853430988113483, 0.0023252949225168193, 0.0018535574696806655, 0.0004221410861868736, -0.0019869936246061527, -0.0020865127097851655, -0.0016470039053991794, -0.00351415941762107, -0.004530911051062054, -0.0007754062133953354, -0.0012322904944401646, 0.0032200297259033653, 0.0005609668773993827, -0.003836492219479252, 0.004752253386437757, -0.004436053306872792, 0.0002500483817950497, 0.0006757454552391877, -0.00111553371734187], [0.004994592635276071, 0.003619539773257882, -0.004522086500594729, -0.0014848668110498077, -0.004042845176924115, -0.002336997686402119, 0.0016950519829330235, -0.00262310120892618, 0.0017644299666854935, -0.0012839579517146728, 0.0023258853321864725, 0.004109160908458338, -0.0008427906524293306, 0.0022308738306044884, 0.0012714844068248046, -0.0006263796724899082, -0.004787281834022995, -0.0019947382020172135, -0.002378195037016053, -0.0036559914136200045, -0.0018888838630797366, -0.00162173469684338, -0.0005169504535836146, 0.00273601922961526, -3.7368948624195986e-05, 0.004463682580731237, 0.0032233937398973714, -0.003607634842207601, 0.0023862945758444474, 0.0004372940991989212, -0.001322571159145872, -0.0012007946076720154, -0.0004651677835898647, 0.002246218937136062, 0.0008127347925230618, -0.0021505503842755127, -0.0023129716699471026, -0.0038394517235880513, 0.0031695062717918615, -0.001552606096323459, -0.0015979376303727334, 0.0017600022155888758, -0.00016831351653739165, -0.002040742243511956, -0.003659441962686062, -0.004996295740968643, -0.00036699490539267646, -0.0005294609975705633, -0.004393293493462438, -0.0017786311483245776, 0.0035573180324965864, 0.0011763992224761597, -0.0024480254038053975, 0.0002792220080236182, 0.0013255300598636862, 0.0008610957850395898, -0.002066059723863547, 0.0030565057853744687, 0.002888777481554778, 0.00013353024896767783, -0.002791725523267189, 0.0014383549125316988, -0.00015439433710238287, -0.0013276126046822857, 0.003208639480594056, -0.002161340838215301, -0.004701977562305058, -0.0007245797920295491, 0.00021210176828585087, 5.436529650678507e-07, 0.004241981315540578, 0.003815271263400216, -0.0024817071113137513, 0.0017413127802241865, -0.0026758655908439856, -0.00448331626135376, -0.004152816561303875, -0.0001234372384489443, -0.004179936740950231, -0.004940412994587403, 0.0018996519057026644, -0.0015433242438203675, -0.00042195979949785113, -0.0037559092071636213, 0.003738819362651126, 0.0002969007322572662, 0.0019368748292868517, 0.002959378249674173, -0.003930694801037451, -0.0010647804332780718, -0.004286027429939902, 2.257899115818557e-05, 0.0017256406644221142, 0.0025987152544813185, -0.004821031846259283, -0.0006033956769770175, -0.0017074968579497284, 0.0030547769892117797, -0.0018075022756436675, -0.0010228449565824436], [-0.002902306112712254, 0.0006229572755876555, 0.0013615233619263586, 0.002159999346122826, 0.004321134747429053, 0.002419034369341583, -0.0040935805731754605, 0.0002659956580596534, -0.004562863717017345, 0.0024146083557366697, 0.002207810644095045, -0.0009544973076121514, 0.003200451727351657, -0.0029216417862280232, 0.00032158486437468617, 0.0002449538385627106, -0.0032729166219246865, -0.0030747886382646193, 0.0017921601316577117, 0.0010710568865780357, -0.002287379776194132, -0.0011171927188586696, -0.0010738399957540903, 0.004948194565542585, 0.0037449828784931237, 0.0023481413545047855, 0.0025184763210260907, -0.0009768237248914098, 0.00041364830965888704, 0.004556682464403087, -0.0019464788499984121, -0.0008583165856292027, 0.0008813459343003848, 0.002920732455240404, -0.0026615175196333185, -0.0019775131594015026, -0.0033446881871801106, -0.003004440783313849, -0.003245998562065795, -0.0023537580761768305, 0.00033096764783990037, -0.000150578109573145, 0.0047480001486412465, -0.0005653028562578651, 0.0032793269941329443, 0.0037935182195651196, -0.002864280149182562, 0.001650565010099905, 0.0019376492596609764, 0.00221179987918231, -0.003399541769277715, 0.004408291668757358, -0.0006326635214056473, -0.002024124714846457, -0.001487055117988554, -0.004482962893530351, 0.001100141195760359, -0.0039722734281832294, -0.002263847623026737, -0.0026320116832200115, 0.0029975514543611045, -0.004445963062081303, -0.0047548381003734, -0.0033387439161892685, 0.000798764591530738, -0.002940608066720879, 0.00016021128417423574, 0.0046818418140657, -0.000879342957990502, 0.004887732411573572, -0.004449858560492334, -0.001967355726659372, -0.0013078112493899096, 0.004257477402485666, -0.0007470341943794159, 0.0009745827774219921, 0.001609295209044007, 0.0014558256657868493, 0.00015711295091815417, -0.004603576873595407, -0.002399575040918692, -0.0006915525992509629, -0.0008836776012534076, 0.004996009700321235, 0.004031451020354653, 0.0018962368121100337, 0.00415583897391772, 0.002426837176609126, 0.0006125729758712029, -0.0035994138292449983, -0.0023096102086201074, -0.00020600567492627501, 0.0037325507529854278, -0.0007447647091973252, 0.0018063436748900685, -0.0027211679040550396, -0.0010510146430286627, -0.002343153638681471, 0.0029396575473975553, -0.003827603723230654], [0.005146126378133544, -0.007403042393665829, -0.012525605394788555, 0.03249589270981765, -0.012672763633288977, 0.004475678726362115, 0.02795283654522795, 0.019354960547416672, 0.011426891601034104, -0.012298821986984104, -0.014906247821313882, 0.00889958976172395, -0.031959989682284015, -0.017651547773272373, -0.0026449618567898755, 0.061247222250518624, 0.00478959106662666, -0.006639535335341893, -0.01717834348887154, 0.006089497672353089, -0.004410403503803158, -0.01992563549057861, 0.040191103185327405, 0.03332415423176423, -0.0010616404430377566, -0.0025741076620003685, 0.0017317107708949605, 0.02205513983120543, -0.01508467357836459, 0.0160277768664477, 0.02323053337315228, -0.012225414881648074, -0.005580983473674986, 0.006233516312151854, -0.02851510065324327, -0.002581506054511766, 0.006100639058231929, -0.004433523489538987, 0.00013648998698605932, 0.03126919609196318, -0.0007342188845842468, 0.010252657450921625, 0.03605117834969523, -0.04049655086322663, -0.01884807649920651, 0.0006529892517112355, 0.028382632142416764, -0.02354070820441809, -0.03217625286577679, -0.015700887124220398, 0.0300400035352717, 0.004875524368151016, 0.022434841419018914, -0.003516048604319125, 0.0007954510980434555, 0.03273423861298304, 0.02873821308978249, 0.0013893885342605929, 0.031108212236395642, 0.0014951503956438846, 0.0027755054447920337, -0.01281142966789019, 0.01050477587638154, -0.007636316679567812, -0.002443331415392473, 0.026306019181207733, -0.017889026303870993, -0.0013933541941643997, -0.005999759771279805, 0.016963618198162507, -0.011349823337088297, -0.006586946648397971, 0.0020646151733918826, 0.013763496097705918, 0.011439869495460508, 0.006025530778186829, 0.013847335287446303, 0.03954172252302454, -0.010780855666695148, 0.003675362764307799, -0.003201120620217564, -0.021881816530354276, -0.003638942359336515, 0.0027848862384868144, 0.0347749288733911, 0.031756945658481826, -0.006827686539848156, 0.0006712856969699148, 0.011540960614511644, 0.0013335436623845302, -0.019247834082725734, -0.002385158124508452, 0.003750969414319272, 0.047140074444752544, -0.006443267970727136, -0.015079175767696842, -0.007558698586076351, 0.00874489761703742, -0.004599534396111021, -0.030423708307647873], [0.0024069477095821786, -0.006551403027226849, -0.01012531555062601, 0.02866284259648972, -0.011516451160277037, -0.0004483586645800706, 0.018814316681120675, 0.013981603874009818, 0.015079491491413249, -0.004285185096001563, -0.015898733094019638, 0.0025405671251712216, -0.02967110689360747, -0.01926460770610266, -4.18137357994367e-05, 0.053028642906642484, 0.005942590980181251, -0.005015401250647157, -0.015828076184117214, 0.0009736250992776389, 0.000681302168120626, -0.018897043098913616, 0.038902683065219344, 0.029199546292624824, 0.000310192512823311, -0.002333659241060447, 0.004856767239052793, 0.019029119814731116, -0.008862940375391547, 0.016104026853227624, 0.023247925463457827, -0.009688178744190567, -0.007825921200990136, -0.0006404313616272199, -0.027539441085363332, -0.0021577110863708134, -0.0004977781459365118, -0.0068638640418396185, -0.0012306193226131162, 0.03355198676121607, -0.0029531455468425906, 0.007557484182416754, 0.04064547885891397, -0.041356412005673436, -0.010150408507149601, 0.0024752149654058957, 0.022008538969156114, -0.02283175853808112, -0.03113270841938294, -0.015271055603382717, 0.030168552933807304, 0.008517578508782908, 0.01721556491871607, -0.0069615300199756735, -0.00014103598311122957, 0.033955396805122405, 0.024115688661362312, 0.004145848685862259, 0.031348127962232304, 7.345768551273057e-06, 0.002559137808174343, -0.006035358426572714, 0.007800342289742248, -0.015020588880155897, -0.0037303725776255646, 0.024499864863687923, -0.015255419298443283, -0.0006989559580839397, -0.004407439909484003, 0.02019779222521351, -0.005943100599831379, -0.007494008760266061, -0.00444064313818791, 0.009631624910691526, 0.017331844979828887, 0.006766528834173311, 0.010151271819735574, 0.03661802873507403, -0.01376696385247055, -0.0010050423257709417, 0.0018634691925184025, -0.027734095722068388, 0.003677484939542696, -0.0008427342008813257, 0.040263123093380634, 0.03399710177167281, 0.0015882235850461636, 0.008174398082372284, 0.009709941586223413, 0.007190313217842042, -0.02121915744579057, 0.00041584508560545965, 0.00037165142671249696, 0.04132812406828223, -0.0051891312978440615, -0.014634072129578667, -0.007275977488224073, 0.014645189578664751, -0.0032261903644600727, -0.03901842149176064], [-0.002262662624820392, 0.0006901740855920378, -0.0035909794079510724, 0.004987852313602968, 0.0016342888224037842, -0.00022101874156403058, 0.002392281678715585, -0.0047588356365950045, -0.003112944286231393, -0.0012999126533650243, 0.0003032167573942526, 0.000900146405472685, 0.003439252553924789, 0.0019908882100890127, 0.0021811716404435437, 0.004712264455062224, 0.004146874667956242, -0.0016023263677772816, -0.002673318065027894, 0.004430836483264341, 0.0020876282932332313, 0.0032311148278765184, 0.004036667124824328, 0.002091048402345235, -1.277105709011038e-06, 0.004192179945431289, -0.0020109580608235456, 0.003343865443287867, 0.0009442492586837613, -0.0032579222092821583, 0.0006331313216301924, -0.0006220516722013547, -0.0006100403747818731, -0.0016350554582072142, 0.0007668923005171415, 0.004211133345346328, 0.003948153139392383, -0.0001102222642261454, 0.004803502009607334, 0.004562116697490261, 0.0006067174854068455, 0.00011460400380487908, -0.0035578241003811593, 0.0020153611120947877, -0.003975968630155197, 0.0034744040953652985, 0.0010291019004221268, -0.00019105871331143685, 0.0035916602469561387, 0.0007080356870860097, -0.0005036672752221725, 0.0006638784403155363, 0.001434106836309291, -0.004821330859517227, -0.0007139813735437582, 0.0006880782519207099, -0.000890978277698358, 0.0007011430689702926, -0.0036123426653664327, -1.1464353774801213e-05, -0.0048083450664890524, -0.0029236874932016634, 0.0030337925480712234, 0.0008684695074627257, 0.00020543631035612776, 0.003396847005798423, 0.0017628192216783568, 0.0031969437555946613, -0.0010983709453843615, -0.0015845598308589426, -0.0006386992301570422, -0.00038484624297456787, 0.001573990087022823, 0.0010012281037733405, 0.004770687249377989, 0.0034261825472744296, 0.0023047547607258643, 0.004779011861498063, -0.0006210086401983979, -0.003856000919625139, -0.0046140585347572115, 0.0018234404899260762, -0.003108704486658467, 0.004273903817219707, 0.0012267190032505364, 0.001289354308032056, 0.0010949072007891796, -0.0015248474340147202, -0.00400270370043866, -0.000540185218989824, 0.003632666425570116, 0.0012438824896997581, -0.0048298716408835055, 0.0003825569711576708, 0.004563874185697459, 0.002230793491064873, -0.004811392743200158, 0.0010914274356640056, 0.004729878780257625, -0.004768116029886022], [0.0025516513173189804, -0.0013675332891255054, 0.004149742436563994, 0.002513252869393732, 0.0012397376077049795, 0.0013416086507805304, 0.0026519344585591445, -0.003153250464936849, -0.0004814760024106409, -0.0037741489916267514, 0.0049336778951833285, -0.004928762565862753, 0.0004894918294034312, -0.004307156252966801, -0.0026987553000148157, -0.003344972145520173, 0.0035415170787572734, 0.004705204988950836, -0.003258833545568125, -0.0009037945180488446, -0.0035696236129857638, -0.0012060845449318636, -0.0009338084904986776, -0.0018670531752311083, 0.004397378209418576, 0.004984464925669029, 0.0027368080020840225, 0.002663159474334777, 0.0031805453900345107, -0.004130108005405658, 0.004901399060551059, -0.0001420583906725434, -0.0011057160298612268, 0.0022617200724106444, -0.0021388165935002012, -0.0006883872704188118, 0.0010244800737891349, -0.00042954628568537927, -0.004812504143312487, 0.0017757555816785842, -0.0037501741238909914, -0.00397157342313073, 0.0015591376545893345, 0.0009003222782429264, 0.0010247255540056519, -0.00026580599095695455, 0.003590366705070282, 0.004090376899409325, -0.00043880479449756506, 0.00417360533585127, 0.0016062758445439407, 0.003853055902360402, 0.0023266468289227906, 0.004233249789218764, 0.0007627495993676814, -0.002632132740205301, 0.004861690251984596, -0.0024737212989473845, 0.002337604607432941, -0.004431825119846992, 0.002525541803856092, -0.00463648189775163, 0.0043768772123176725, 0.0004492612803243005, -0.004982498560549687, 0.0010184285441523023, -0.0010106271553122536, -0.004154969326501864, 0.0015110561877854757, -0.0010792456722173481, -0.0027580116143271862, 0.004442439270436673, 0.003593003771022123, 0.003833916244747759, -2.961212132244085e-05, -0.0033223637659817043, -0.00148845520700823, 0.004866642301385215, -0.0008403799999352323, -0.004657197301094072, 0.00283446902040035, 0.0035949611987418162, -0.002603198890559992, 0.0003110939772967671, 0.004722437977062362, -0.0024214195773898583, 0.001774966179381987, 0.0021912881192188904, -0.0014146036790711291, 0.004022245531332124, 0.0040581738979894805, 0.003256114524904363, 0.003995667524217991, -0.0005496367913946964, -0.004142150506793839, 0.0032315239232049474, 0.0020078740986854363, 0.0025997435947867596, -0.0036670223828001005, 0.0048008616766977005], [-0.004156223975007421, 0.0027437566134981307, 0.0019492939752394304, 0.0035274014513637783, -0.003570463820437785, -0.0011257515033692043, 0.002916631631015145, 0.0007329558417342253, -0.003089467332846373, -0.002460426727385533, -0.0007859688245541972, 0.004476887046179137, 0.004931288532228988, 0.004084993362371873, -0.001307381337395054, 0.000751508191326025, -0.004513343121648326, 0.001449354524277231, 0.004578558566667165, 0.001624367939717315, 0.0005923335416152401, -0.003510193430548766, -0.0024862129056767513, -0.00015749602110513503, 0.003673106496538057, -0.0012676043221897847, 0.0007808784938814518, 0.00317232516904314, -0.0034607836327008867, -0.00044889977897941136, 4.2404542868649565e-05, 0.0009023143631838003, -0.00431975198596653, 0.0010904588121873112, -0.0030475233420606852, 0.00028615490339929314, -0.0010019393823050412, 0.00399800472817589, 0.004582614049430267, -0.0048064411860658015, 0.001472734771967815, 0.0024865894044316626, 0.001864860903081419, -0.0038705688502870773, -0.0032260377691738762, -0.0011625043666733804, -0.004822207287220309, -0.0024062159435137877, -0.0025842280856769873, -0.0019374111615003344, -0.0017992213445960905, -0.002930054402500489, 0.0044253468168530844, 0.00020775235070310052, -0.000719462985682975, -0.0008014634605291162, -0.0034430648927929273, -0.002078676964866488, 0.0009108260308885105, -0.0007293333488624532, 0.0006183669175025249, -0.0038496069212279596, -0.00305415483911291, -0.00099165800108875, 7.318797369312152e-07, -0.0035114338613471264, -0.0006129390979414066, 0.0032871238929491836, 0.001600844007640748, 0.004365298707142328, 0.0018004362857383617, 0.00027454120989576884, -0.0014425510062178203, -0.00034017041243379533, -0.002110173829226599, 0.002367313153845982, 0.001599810306527034, 0.0007475132959199708, 0.0014726827844766463, -0.002461736831168625, 0.0031824229691315995, -0.003069500027503518, 0.00025344761474918164, -0.001666272848393515, 0.002260254050175623, 0.0011494245029264275, -0.000539968091495778, -0.003548306236312546, -0.0004477631471005829, -0.001957055106083031, 5.040021435486451e-05, 0.002696115551880627, 0.001142956096642063, -0.001564980242993337, 0.000244345725440933, 0.0007533469822266665, 0.000562018985903568, -0.0015139152834068872, -0.00047717180955854886, 0.0032126370514564987], [-0.004333095786451901, -0.005438966896047796, -0.003465047244621157, 0.011855800920811234, -0.0055967130400913214, 0.0029252982186635666, 0.015617945797729803, 0.0008449663846086694, -0.0018117943050975612, 0.00234833248236109, -0.00243544505420656, 0.002086613468939248, -0.0030479322399664345, -0.0036465575290051486, 0.004099896358012113, 0.013098415515033523, 0.00571741039728496, 0.0044137854326204715, -0.000502954425589251, 0.005580229360287745, -0.004821337714235265, -0.0020165820570320833, 0.0036122642431475503, 0.0005706913526404913, -0.0017912903360114362, -0.006454689489258146, 0.006412919206973422, 0.016124708981576166, 0.001150510247864804, -0.00624143320014811, 0.005873534847935938, -0.0027449012879940536, -0.0010563337887171402, -0.004441358664295233, -0.0024981766327535474, 0.005084234033309373, -0.0005419490614756827, -0.005415242984406696, -0.004143607808294742, 0.004016537713903756, 0.0010812388394761225, 0.003807977606200529, 0.007040573621993754, -0.014447257967295967, 0.009198595605710848, 0.004503304381918732, 0.008351307934249626, 0.004705191175261459, -0.009470952908136324, -0.00336688949821369, 0.00855914412674883, 0.004801349344088247, 0.007715038166546524, -0.008823621219435888, -0.0023315235976269218, 0.008637656299592589, 0.004613275593201521, -0.004053755536118266, 0.003773352229157188, 0.0008226484654453921, -0.0035212491260860675, -0.003949558074525009, -0.0006535851787435193, -0.005372094635748252, 0.0012075467518914145, 0.0006158526979452081, 0.0012328979696370054, 0.000435450435997491, -0.0004888417273772784, 0.010997894790071197, -0.0027090463340378734, 0.002428731161500434, -0.003934382628743975, 0.004453124664966422, 0.00403432146986632, -0.0039230185477616185, 0.00047088558711583223, 0.006863950858976039, 0.00231072416740803, 0.003434703843316835, -0.002971200160538424, -0.002100345882423886, -0.001068503750986529, 0.004502399841787038, 0.003353372388468328, -0.0032959480213174733, 0.008340077669469289, 0.0017599034649088776, 0.005889570598065412, 0.004271846372177121, 0.006220483289315053, -0.0004052421868849444, -0.003173491677815661, 0.013323768692025938, 0.0017829329998830358, -0.007438582016872626, -0.004503498583615732, 0.0021313451860295, -0.008405067470436347, 0.0019101864577973167], [-0.001545539616028828, -0.002224310265062981, -0.0034150065921238195, -0.0010029054366026318, -0.0033735907553809055, -0.0010109690564265254, 0.00037358989678715725, 0.0024299675984774142, 0.0005746756033352561, -0.0049382699636354044, -0.0006365114801108844, 0.00044980483652657874, -0.0017015296017685822, 0.0017215047819807887, 0.004427055564254201, 0.004776664064013502, 0.001806362556789719, 0.004360875192161791, 0.0029815554796406617, 0.0032222509519486938, 0.00036894157412059245, 0.0020435187510368415, -0.0035511194796548685, -0.004672552494713552, 0.00013052722995127684, -0.002123566892874226, -0.001880325347802019, 0.00024657600772811164, -0.0019126237212323794, 0.0008345326318040854, 